71 108
tree1 -1296.91 -1271.58 -1268.85 -1260.09 -1544.78 -1461.99 -1346.79 -1452.43 -1577.89 -1436 -1305.19 -1386.17 -1456.04 -1587.09 -1388.81 -1621.18 -1173.72 -1275.1 -1371.28 -1381.1 -1418.23 -1174.7 -1232.04 -1404.02 -1068.66 -1579.65 -1285.21 -1576.11 -1303.28 -1347.65 -1168.33 -1265.01 -1326.89 -1342.38 -1071.53 -1269.27 -1122.64 -1182.77 -1293.64 -1289.16 -1033.4 -1164.41 -1188.11 -1048.34 -1168.63 -1073.59 -1102.73 -969.557 -1039.14 -1143.79 -1087.87 -1283.58 -1146.85 -1231.55 -1359.05 -995.251 -1116.47 -1249.52 -1020.47 -1214.94 -928.568 -966.822 -1091.23 -1316.9 -1078.44 -1124.3 -946.187 -1171.99 -1153.23 -1003.6 -1103.88 -1002.63 -1010.41 -1110.36 -1028.98 -1067.99 -1071.13 -946.936 -1170.34 -1074.01 -1038.25 -1074.46 -1010.36 -1039.38 -1193.66 -892.253 -928.992 -1096.95 -1001 -992.506 -1011.78 -1117.63 -893.445 -919.718 -952.167 -1122.78 -983.388 -928.269 -1056.25 -1038.27 -1038.18 -951.276 -1001.63 -952.039 -923.306 -758.319 -937.081 -858.302
tree2 -1300.32 -1275.03 -1274.68 -1260.09 -1544.79 -1465.19 -1349.27 -1452.44 -1577.89 -1436.32 -1307.81 -1386.31 -1459.22 -1587.09 -1388.81 -1621.35 -1176.67 -1277.55 -1371.34 -1380.94 -1421.53 -1177.96 -1232.95 -1404.02 -1068.66 -1582.94 -1286.15 -1576.12 -1305.67 -1347.82 -1168.33 -1265.88 -1326.9 -1347.97 -1072.58 -1271.92 -1125.95 -1182.7 -1296.29 -1289.23 -1036.87 -1164.41 -1188.11 -1051.26 -1170.12 -1073.57 -1107.76 -976.081 -1040.56 -1146.26 -1088.93 -1283.58 -1148.62 -1231.55 -1360.59 -1001.21 -1117.84 -1250.98 -1020.59 -1214.94 -928.568 -970.028 -1091.23 -1318.6 -1080.37 -1123.81 -949.523 -1172 -1157.38 -1004.79 -1103.88 -1002.63 -1013.27 -1110.75 -1029 -1067.55 -1073.66 -950.709 -1170.34 -1074.01 -1038.24 -1077.17 -1010.47 -1040.57 -1194.81 -892.253 -928.992 -1096.9 -1001.38 -992.507 -1011.78 -1117.99 -893.445 -919.718 -954.641 -1124.89 -983.388 -930.801 -1056.25 -1038.27 -1038.32 -951.422 -1003.91 -952.039 -923.337 -758.319 -940.067 -858.302
tree3 -1301.14 -1270.88 -1273.6 -1260.08 -1547.48 -1470.31 -1344.58 -1452.43 -1577.89 -1439.51 -1309.7 -1388.64 -1457.02 -1588.15 -1392.29 -1618.23 -1172.69 -1279.26 -1373.71 -1386.82 -1425.93 -1177.94 -1231.48 -1404.02 -1072.01 -1588.15 -1287.32 -1578.76 -1303.08 -1348.72 -1171.18 -1268.43 -1326.9 -1351.54 -1068.13 -1271.92 -1131.54 -1182.76 -1300.66 -1285.29 -1041.76 -1164.41 -1188.11 -1048.21 -1170.55 -1076.49 -1109.55 -978.999 -1035.98 -1144.48 -1084.66 -1283.92 -1152.26 -1232.96 -1360.5 -1006.15 -1118.72 -1253.3 -1015.97 -1215.99 -928.568 -976.879 -1093.62 -1314.25 -1080.47 -1126.05 -955.959 -1172.08 -1157.95 -1006.16 -1103.88 -1002.63 -1010.38 -1112.09 -1031.74 -1067.92 -1075.19 -950.755 -1170.34 -1074.01 -1041.88 -1074.81 -1010.37 -1040.49 -1192.21 -892.253 -928.992 -1096.93 -996.593 -992.512 -1011.78 -1120.18 -893.445 -919.718 -954.258 -1123.82 -983.388 -935.364 -1056.25 -1044.97 -1038.26 -951.265 -1009.57 -952.032 -925.574 -758.319 -936.388 -858.302
tree4 -1302.53 -1272.07 -1274.65 -1262.56 -1550.17 -1471.09 -1347.53 -1456.21 -1578.44 -1441.91 -1306.65 -1386.26 -1457.03 -1591.23 -1389.82 -1623.52 -1174.94 -1279.26 -1375.45 -1390.09 -1426.13 -1177.94 -1233.81 -1404.02 -1073 -1587.73 -1287.6 -1584.71 -1303.59 -1351.98 -1171.18 -1265.75 -1329.33 -1348.49 -1068.13 -1273.02 -1131.81 -1184.27 -1299.45 -1289.18 -1041.76 -1165.34 -1188.11 -1048.23 -1172.08 -1082.93 -1109.55 -981.544 -1036.62 -1146.95 -1084.66 -1285.19 -1149.24 -1233.01 -1361.09 -1004.66 -1122.11 -1250.65 -1023.6 -1211.29 -928.568 -980.841 -1091.17 -1315.66 -1083.89 -1126.75 -958.776 -1172.49 -1159.56 -1002.2 -1103.88 -1002.63 -1010.52 -1111.63 -1028.59 -1069.77 -1075.35 -954.532 -1172.83 -1074.01 -1037.45 -1076.7 -1010.29 -1042.63 -1192.8 -892.253 -928.992 -1096.93 -997.943 -992.51 -1014.38 -1120.58 -893.445 -919.718 -954.258 -1123.81 -985.205 -935.377 -1056.25 -1044.97 -1039.08 -953.489 -1009.57 -952.07 -925.574 -758.319 -938.221 -858.302
tree5 -1302.54 -1275.53 -1274.52 -1263.89 -1551.52 -1471.53 -1349.68 -1458.16 -1578.44 -1439.49 -1305.79 -1389.17 -1455.14 -1593.13 -1383.27 -1623.79 -1172.73 -1276.2 -1373.08 -1393.67 -1422.67 -1178 -1233.8 -1404.21 -1076.16 -1587.73 -1286.38 -1588.61 -1298.94 -1352.15 -1175.54 -1258.78 -1329.42 -1353.08 -1074.91 -1271.46 -1134.01 -1181.01 -1299.45 -1289.15 -1041.75 -1163.2 -1188.11 -1051.67 -1174.14 -1082.87 -1109.55 -981.491 -1035.85 -1140.81 -1091.97 -1287.67 -1154.17 -1234.34 -1359.24 -1007.14 -1121.81 -1250.35 -1026.59 -1208.85 -931.176 -983.063 -1091.17 -1315.61 -1085.86 -1129.59 -958.787 -1167.62 -1157.6 -1006.74 -1104.51 -1002.63 -1012.68 -1111.63 -1021.97 -1072.12 -1071.97 -956.561 -1178.49 -1076.29 -1041.91 -1078.63 -1014.38 -1040.01 -1191.98 -892.253 -928.992 -1096.73 -997.95 -992.938 -1014.38 -1120.22 -893.445 -922.195 -953.094 -1126.14 -985.762 -937.679 -1056.25 -1048.63 -1038.41 -951.36 -1009.53 -954.592 -925.532 -758.319 -938.221 -858.259
tree6 -1302.47 -1275.49 -1274.52 -1263.86 -1551.05 -1470.79 -1347.48 -1455.93 -1577.89 -1436.1 -1308.51 -1392.95 -1458.5 -1590.63 -1389.45 -1623.79 -1174 -1282.45 -1375.26 -1392.73 -1429.54 -1177.92 -1234.95 -1403.93 -1079.77 -1586.06 -1286.38 -1587.13 -1305.93 -1352.15 -1175.93 -1265.81 -1329.42 -1352.51 -1079.48 -1271.46 -1136.21 -1178.99 -1298.72 -1292.28 -1041.67 -1156.39 -1188.11 -1053.5 -1172.26 -1081.82 -1109.56 -981.463 -1043.33 -1142.67 -1095.52 -1287.67 -1154.1 -1231.78 -1362.51 -1004.67 -1123.15 -1253.37 -1026.6 -1208.85 -931.176 -981.743 -1091.17 -1314.21 -1085.86 -1132.45 -958.7 -1173.76 -1157.6 -1006.74 -1104.51 -1002.63 -1016.46 -1111.63 -1028.6 -1071.27 -1071.98 -952.077 -1179.03 -1076.29 -1041.89 -1075.06 -1018.99 -1042.03 -1192 -892.253 -928.992 -1096.73 -996.446 -998.916 -1015.99 -1118.44 -893.445 -922.195 -953.085 -1125.78 -985.762 -939.689 -1056.25 -1048.69 -1032.38 -951.36 -1009.53 -954.592 -926.953 -758.319 -937.4 -858.259
tree7 -1302.54 -1275.56 -1274.52 -1261.81 -1551.15 -1470.75 -1349.52 -1455.77 -1578.46 -1438.49 -1308.41 -1388.24 -1458.46 -1593.77 -1389.96 -1623.55 -1167.36 -1281.99 -1375.26 -1395.38 -1429.54 -1178.01 -1235.13 -1404.31 -1080.61 -1587.73 -1286.38 -1587.23 -1305.9 -1352.15 -1174.16 -1265.81 -1329.42 -1353.24 -1079.44 -1271.46 -1136.29 -1183.38 -1293.94 -1290.78 -1040.37 -1163.24 -1188.11 -1053.5 -1170.65 -1079.5 -1109.55 -978.094 -1043.32 -1139.35 -1095.17 -1287.67 -1153.36 -1233.11 -1362.52 -1004.57 -1120.12 -1253.29 -1023.64 -1208.85 -931.176 -981.403 -1091.17 -1313.82 -1085.86 -1132.63 -958.789 -1173.43 -1157.6 -1006.74 -1104.51 -1002.63 -1016.46 -1111.63 -1027.68 -1073.01 -1071.13 -953.474 -1178.02 -1076.29 -1039.43 -1077.35 -1019 -1036.22 -1190.47 -892.253 -928.992 -1096.73 -998.279 -999.028 -1016.15 -1118.37 -893.445 -922.195 -952.154 -1123.5 -985.762 -939.68 -1056.25 -1047.95 -1039.04 -951.36 -1009.53 -954.592 -929.457 -758.319 -940.724 -858.259
tree8 -1302.5 -1270.82 -1271.38 -1263.89 -1548.72 -1470.82 -1346.7 -1458.94 -1578.48 -1443.58 -1308.55 -1387.41 -1454.87 -1595.1 -1388.69 -1623.78 -1172.81 -1281.66 -1374.49 -1394.12 -1428.47 -1177.98 -1231.14 -1404.21 -1069.33 -1586.06 -1287.79 -1588.59 -1305.08 -1352.41 -1175.42 -1265.81 -1326.94 -1353.1 -1074.98 -1270.7 -1127.2 -1185.62 -1299.45 -1289.12 -1041.72 -1165.27 -1188.11 -1051.67 -1173.57 -1082.94 -1109.56 -981.555 -1041.16 -1146.95 -1092.02 -1287.51 -1155.02 -1235.61 -1361.08 -1004.67 -1119.74 -1243.89 -1025.43 -1211.29 -931.176 -983.078 -1091.17 -1311.49 -1083.89 -1131.24 -958.75 -1173.71 -1158.72 -1006.57 -1104.49 -1002.63 -1006.13 -1113.45 -1026.58 -1071.88 -1075.37 -954.923 -1178.49 -1075.6 -1041.75 -1077.19 -1014.27 -1043.05 -1191.2 -892.25 -928.99 -1098.31 -996.197 -994.444 -1011.96 -1118.74 -893.445 -921.521 -948.3 -1124.88 -987.162 -938.019 -1056.25 -1048.74 -1039.06 -953.389 -1008.44 -948.323 -923.287 -758.319 -935.935 -858.305
tree9 -1302.5 -1271.79 -1271.38 -1263.99 -1548.23 -1465.11 -1344.24 -1458.94 -1578.63 -1446.72 -1307.37 -1394.06 -1453.16 -1593.68 -1388.69 -1623.78 -1177.18 -1284.45 -1371.97 -1393.63 -1428.47 -1176.61 -1231.15 -1404.11 -1077.38 -1586.06 -1284.83 -1587.07 -1307.57 -1352.41 -1175.97 -1265.81 -1326.94 -1353.34 -1074.94 -1270.34 -1135.02 -1184.42 -1299.45 -1289.12 -1038.26 -1166.6 -1188.11 -1051.67 -1173.12 -1082.94 -1109.56 -981.558 -1042.85 -1144.4 -1092.16 -1287.51 -1155.02 -1233.58 -1359.19 -1006.58 -1118.43 -1243.89 -1027.21 -1211.29 -931.176 -981.374 -1091.17 -1309.05 -1083.71 -1131.92 -957.357 -1173.71 -1157.62 -1006.57 -1104.49 -1002.63 -1011.66 -1111.64 -1026.43 -1074.03 -1074.54 -957.62 -1178.49 -1075.6 -1041.75 -1077.19 -1012.06 -1043.05 -1193.36 -892.25 -928.99 -1098.66 -996.184 -994.726 -1011.96 -1118.74 -893.445 -921.521 -952.833 -1125.98 -985.709 -937.85 -1056.25 -1048.74 -1038.68 -950.97 -1007.88 -948.323 -923.287 -758.319 -935.935 -858.305
tree10 -1299.01 -1275.07 -1271.34 -1260.65 -1545.27 -1470.31 -1346.77 -1458.94 -1578.65 -1446.26 -1311.95 -1393.44 -1448.38 -1593.75 -1388.69 -1623.53 -1177.17 -1283.03 -1370.27 -1397.89 -1428.47 -1176.19 -1224.11 -1404.21 -1077.22 -1586.06 -1286.2 -1587.06 -1307.56 -1352.41 -1175.96 -1265.81 -1326.94 -1352.2 -1079.06 -1270.67 -1135.01 -1184.26 -1299.45 -1289.12 -1041.72 -1166.31 -1188.11 -1051.67 -1170.86 -1082.94 -1109.54 -981.556 -1040.03 -1145.21 -1092.8 -1287.51 -1155.02 -1235.17 -1361.06 -1006.57 -1119.73 -1243.89 -1027.2 -1211.29 -931.176 -981.734 -1091.17 -1312.94 -1085.37 -1134.25 -955.452 -1173.71 -1156.32 -1006.57 -1104.49 -1002.63 -1012.99 -1111.64 -1026.58 -1074.02 -1074.16 -956.335 -1178.49 -1075.6 -1041.75 -1077.19 -1014.27 -1040.49 -1191.16 -892.25 -928.99 -1098.5 -996.187 -994.767 -1011.96 -1118.74 -893.445 -921.521 -951.698 -1125.97 -983.595 -939.45 -1056.25 -1048.74 -1039.07 -952.442 -1008.35 -948.323 -923.287 -758.319 -935.935 -858.305
tree11 -1302.52 -1268.56 -1274.49 -1262.55 -1550.21 -1470.56 -1345.18 -1456.21 -1578.46 -1439.67 -1312.15 -1388.09 -1454.17 -1591.88 -1392.4 -1624.8 -1172.55 -1279.26 -1373.84 -1387.31 -1425.13 -1174.66 -1233.71 -1404.02 -1069.94 -1589.05 -1285.31 -1584.74 -1303.05 -1350.94 -1168.28 -1267.85 -1329.3 -1353.69 -1064.69 -1271.58 -1130.77 -1184.15 -1300.23 -1291.82 -1041.56 -1165.45 -1188.11 -1040.36 -1172.41 -1082.65 -1109.56 -981.532 -1034.06 -1145.22 -1081.21 -1279.1 -1154.43 -1231.33 -1361.87 -1006.58 -1121.84 -1252.88 -1019.39 -1216.92 -928.568 -981.201 -1093.63 -1313.87 -1083.94 -1125 -958.76 -1172.38 -1158.11 -1007.77 -1103.88 -1002.63 -1010.52 -1112.62 -1031.81 -1063.84 -1075.19 -950.211 -1172.15 -1074.01 -1039.29 -1077.37 -1008.14 -1041.31 -1191.26 -892.253 -928.992 -1096.91 -1001.09 -992.507 -1014.4 -1120.92 -893.445 -919.718 -954.258 -1123.72 -985.924 -934.327 -1056.25 -1044.97 -1039.03 -953.489 -1009.57 -952.072 -925.574 -758.319 -936.035 -858.302
tree12 -1302.52 -1272.1 -1281.48 -1262.59 -1553.66 -1473.84 -1347.59 -1461.66 -1581.81 -1443.14 -1313.93 -1392.45 -1458.45 -1596.34 -1392.4 -1628.56 -1176.01 -1279.26 -1375.19 -1390.43 -1428.55 -1174.66 -1235.13 -1404.02 -1073.46 -1589.53 -1287.71 -1584.74 -1305.55 -1350.94 -1171.5 -1269.62 -1329.3 -1353.69 -1068.13 -1273.83 -1134.01 -1187.02 -1302.71 -1291.82 -1041.54 -1168 -1188.11 -1048.23 -1174.03 -1082.94 -1109.56 -981.538 -1037.32 -1145.22 -1084.61 -1286.03 -1156.51 -1233.95 -1365.27 -1006.58 -1124.26 -1253.81 -1026.16 -1220.24 -928.568 -984.773 -1097.78 -1316.62 -1089.67 -1125 -958.768 -1174.84 -1159.11 -1007.88 -1103.88 -1002.63 -1013.86 -1112.62 -1035.17 -1063.84 -1076.71 -956.126 -1172.15 -1074.01 -1039.29 -1077.37 -1008.14 -1041.31 -1191.23 -892.253 -928.992 -1096.91 -1004.89 -992.507 -1016.17 -1123.43 -893.445 -919.718 -954.258 -1123.72 -985.924 -937.017 -1056.25 -1044.97 -1039.03 -956.558 -1009.57 -955.684 -925.574 -758.319 -938.283 -858.302
tree13 -1302.52 -1272.1 -1281.52 -1262.59 -1553.66 -1473.84 -1347.59 -1461.66 -1581.81 -1443.18 -1313.75 -1392.45 -1458.45 -1596.34 -1392.4 -1628.56 -1176.1 -1279.26 -1376.27 -1390.38 -1428.55 -1174.66 -1235.13 -1404.02 -1073.46 -1589.53 -1287.8 -1584.74 -1305.55 -1350.94 -1171.54 -1269.53 -1329.3 -1353.69 -1068.13 -1272.45 -1134.05 -1187.02 -1302.81 -1291.82 -1044.25 -1168.09 -1188.11 -1048.23 -1173.85 -1082.86 -1109.56 -981.538 -1037.32 -1145.22 -1084.65 -1286.05 -1156.51 -1234.05 -1365.27 -1006.58 -1124.26 -1253.81 -1026.16 -1220.06 -928.568 -984.816 -1097.86 -1316.71 -1089.7 -1125 -958.768 -1174.84 -1158.93 -1007.7 -1103.88 -1002.63 -1013.86 -1112.44 -1035.17 -1063.84 -1076.71 -956.126 -1172.15 -1074.01 -1039.29 -1077.37 -1008.14 -1041.31 -1190.9 -892.253 -928.992 -1096.91 -1004.89 -992.507 -1016.17 -1123.43 -893.445 -919.718 -954.258 -1123.72 -985.924 -937.106 -1056.25 -1044.97 -1039.03 -956.558 -1009.57 -955.684 -925.574 -758.319 -938.283 -858.302
tree14 -1302.52 -1275.03 -1274.68 -1260.09 -1548.06 -1471 -1350.33 -1452.43 -1577.89 -1438.49 -1307.5 -1388.32 -1459.32 -1589.24 -1392.29 -1623.33 -1176.94 -1276.85 -1369.19 -1386.85 -1426.85 -1178 -1229.54 -1404.02 -1071.81 -1588.51 -1286.6 -1578.75 -1305.1 -1348.81 -1171.21 -1267.56 -1326.89 -1351.11 -1074.27 -1271.92 -1132.41 -1182.76 -1301.65 -1291.83 -1041.76 -1164.41 -1188.11 -1051.28 -1170.5 -1077.16 -1109.56 -978.764 -1042 -1146.28 -1090.58 -1283.94 -1151.77 -1232.95 -1358.27 -1006.2 -1113.35 -1252.41 -1022.74 -1215.96 -928.568 -976.841 -1093.62 -1319.02 -1078.99 -1126.98 -955.752 -1172.07 -1156.21 -1004.04 -1103.88 -1002.63 -1013.28 -1106.12 -1031.74 -1067.85 -1076.71 -948.161 -1170.34 -1074.01 -1041.83 -1077.16 -1008.25 -1040.41 -1194.32 -892.253 -928.992 -1096.92 -1002.64 -992.506 -1010.47 -1119.8 -893.445 -919.718 -954.665 -1124.56 -983.388 -936.332 -1056.25 -1044.78 -1038.32 -951.489 -1010.21 -952.042 -925.081 -758.319 -941.859 -858.302
tree15 -1300.32 -1275.17 -1272.89 -1260.08 -1544.78 -1465.19 -1348.92 -1452.44 -1577.89 -1436.24 -1307.49 -1386.34 -1459.22 -1587.08 -1388.81 -1621.35 -1176.67 -1277.18 -1371.22 -1380.95 -1421.53 -1177.96 -1230.81 -1404.02 -1068.66 -1582.94 -1286.96 -1576.11 -1304.88 -1346.27 -1168.32 -1265.85 -1326.86 -1347.78 -1072.58 -1271.86 -1125.95 -1182.76 -1296.28 -1289.22 -1036.87 -1164.41 -1188.11 -1051.26 -1170.11 -1071.71 -1107.76 -975.884 -1040.57 -1146.25 -1088.93 -1283.58 -1148.92 -1231.55 -1360.73 -1001.53 -1118.07 -1250.8 -1020.59 -1214.94 -928.568 -970.068 -1091.23 -1318.62 -1080.28 -1123.98 -949.523 -1171.99 -1157.26 -1002.35 -1103.88 -1002.63 -1013.27 -1110.44 -1029 -1067.63 -1073.65 -950.951 -1170.34 -1074.01 -1038.23 -1077.18 -1011.9 -1041.19 -1195.44 -892.253 -928.992 -1096.95 -1001.39 -992.508 -1010.46 -1117.94 -893.445 -919.718 -954.641 -1125.12 -983.388 -930.8 -1056.25 -1038.27 -1038.29 -950.691 -1003.89 -952.039 -922.973 -758.319 -937.907 -858.302
tree16 -1296.91 -1272 -1274.54 -1263.55 -1544.78 -1461.99 -1348.4 -1452.43 -1577.89 -1435.95 -1305.19 -1386.19 -1456.05 -1587.11 -1388.81 -1621.18 -1174.81 -1274.63 -1371.49 -1380.95 -1418.16 -1174.72 -1232.13 -1404.02 -1070.13 -1579.65 -1285.18 -1576.12 -1302.06 -1346.08 -1168.32 -1265.01 -1327.03 -1339.68 -1072.51 -1268.49 -1122.64 -1185.15 -1293.98 -1289.13 -1033.38 -1164.95 -1187.59 -1048.34 -1169.13 -1071.83 -1103.25 -973.655 -1040.33 -1145.92 -1087.81 -1283.71 -1146.07 -1231.55 -1359.03 -998.882 -1116.48 -1247.08 -1020.5 -1215.1 -928.591 -970.066 -1091.72 -1316.89 -1078.45 -1123.04 -946.21 -1172 -1154.14 -1006.29 -1103.88 -1002.63 -1010.41 -1110.43 -1031.75 -1067.83 -1070.72 -946.934 -1170.49 -1074.16 -1039.36 -1074.5 -1011.43 -1039.86 -1193.64 -892.254 -928.992 -1096.94 -1001.34 -992.506 -1012.01 -1117.66 -895.29 -920.073 -952.167 -1122.76 -983.432 -928.248 -1056.25 -1043.27 -1038.18 -951.411 -1004.31 -952.039 -923.279 -760.587 -939.863 -858.301
tree17 -1296.91 -1272.98 -1272.59 -1266.52 -1544.79 -1462.22 -1347.12 -1452.5 -1577.89 -1435.69 -1305.18 -1387.47 -1456.23 -1588.31 -1389.01 -1621.22 -1177.28 -1274.62 -1370.67 -1381.68 -1418.14 -1174.72 -1232.3 -1404.02 -1065.6 -1579.66 -1283.3 -1576.11 -1302.07 -1346.06 -1168.37 -1265.21 -1327.33 -1340.41 -1068.13 -1269.57 -1125.48 -1183.94 -1294.03 -1289.13 -1033.16 -1166.41 -1187.37 -1048.34 -1169.62 -1073.03 -1103.51 -973.759 -1038.58 -1143.79 -1087.81 -1284.17 -1146.06 -1231.57 -1359.03 -998.613 -1116.49 -1246.97 -1020.45 -1215.55 -931.394 -973.612 -1091.12 -1316.99 -1078.89 -1123.03 -946.145 -1173.14 -1152.76 -1003.39 -1103.89 -1002.64 -1010.41 -1110.65 -1032.13 -1066.71 -1070.87 -944.12 -1170.34 -1074.21 -1039.59 -1074.07 -1010.96 -1039.67 -1193.7 -892.25 -928.992 -1096.94 -1001.36 -992.508 -1012.05 -1117.54 -897.174 -920.126 -952.449 -1122.93 -983.429 -928.251 -1056.25 -1040.3 -1038.25 -951.619 -1007.28 -952.017 -923.15 -760.428 -938.698 -858.311
tree18 -1296.91 -1273.99 -1271.92 -1269.18 -1545.46 -1462.22 -1347.18 -1452.71 -1577.93 -1435.75 -1305.18 -1387.19 -1456.25 -1588.81 -1389.01 -1623.2 -1177.28 -1275.15 -1370.72 -1382.72 -1418.15 -1174.72 -1232.24 -1404.16 -1072.73 -1579.66 -1286.19 -1576.12 -1303.56 -1346.1 -1168.28 -1264.83 -1327.33 -1340.79 -1074.55 -1271.53 -1123.34 -1183.87 -1294.01 -1289.13 -1033.16 -1165.18 -1187.37 -1048.35 -1169.15 -1073.29 -1103.75 -981.44 -1038.59 -1143.79 -1087.83 -1283.32 -1146.07 -1231.56 -1359.04 -998.586 -1116.47 -1246.97 -1020.45 -1218.07 -931.395 -973.683 -1091.12 -1317 -1079.86 -1122.99 -946.272 -1173.04 -1152.75 -1007.15 -1104.09 -1002.63 -1010.41 -1110.41 -1031.5 -1064.9 -1070.97 -944.118 -1170.25 -1072.6 -1039.65 -1074.1 -1011.14 -1039.6 -1193.78 -892.251 -928.993 -1097.04 -1001.15 -993.399 -1006.19 -1117.49 -897.196 -919.883 -952.467 -1121.62 -983.439 -928.665 -1056.3 -1046.01 -1038.47 -952.051 -1007.94 -952.006 -923.079 -761.736 -940.034 -858.804
tree19 -1298.18 -1273.69 -1272.54 -1269.36 -1548.98 -1461.99 -1349.79 -1456.17 -1577.81 -1439.17 -1305.54 -1390.03 -1456.28 -1593.39 -1388.8 -1627.23 -1180.11 -1275.31 -1373.04 -1382.52 -1418.1 -1178.02 -1234.32 -1406.03 -1073.48 -1579.91 -1286.19 -1576.12 -1303.06 -1346.1 -1171.53 -1264.83 -1328.04 -1340.43 -1075.97 -1274.99 -1125.94 -1186.36 -1294.01 -1292.84 -1033.26 -1170.86 -1187.37 -1051.67 -1169.14 -1076.18 -1103.75 -981.44 -1041.86 -1144.8 -1091.24 -1283.81 -1148.57 -1233.94 -1359.03 -1001.78 -1116.81 -1250.89 -1023.76 -1222.03 -935.537 -976.986 -1091.46 -1317.33 -1079.03 -1125.47 -949.555 -1172.42 -1154.48 -1007.15 -1106.99 -1002.63 -1010.41 -1112.91 -1032.93 -1065.23 -1073.62 -947.245 -1172.77 -1072.71 -1041.72 -1073.74 -1013.4 -1041.95 -1195.48 -895.284 -931.859 -1096.85 -1003.69 -993.578 -1013.13 -1117.82 -897.427 -922.497 -953.081 -1123.4 -985.98 -928.08 -1056.22 -1047.44 -1038.47 -954.048 -1011.67 -952.006 -923.079 -761.736 -942.475 -862.35
tree20 -1298.18 -1274.2 -1274.89 -1269.57 -1548.98 -1462.22 -1349.75 -1455.27 -1577.93 -1438.53 -1305.52 -1389.37 -1456.21 -1593.55 -1389.01 -1627.23 -1180.11 -1275.54 -1373.07 -1385.12 -1418.16 -1178.02 -1234.66 -1405.9 -1073.48 -1579.93 -1286.19 -1576.12 -1304.51 -1346.1 -1171.53 -1264.83 -1329.27 -1340.77 -1075.97 -1275 -1125.55 -1186.36 -1294.01 -1292.84 -1033.26 -1170.86 -1187.37 -1051.67 -1170.07 -1076.85 -1103.75 -981.44 -1041.86 -1144.8 -1090.58 -1279.12 -1148.57 -1233.94 -1359.04 -1001.78 -1116.79 -1250.69 -1023.76 -1221.86 -935.537 -976.986 -1091.44 -1317.33 -1082.24 -1124.8 -949.555 -1173.9 -1154.15 -1007.15 -1106.98 -1002.63 -1010.41 -1112.92 -1032.93 -1065.22 -1073.6 -947.245 -1172.77 -1072.4 -1041.29 -1074.76 -1013.4 -1041.95 -1195.51 -895.267 -931.859 -1097.01 -1003.69 -992.636 -1013.13 -1117.81 -897.518 -922.5 -953.134 -1123.56 -985.98 -928.642 -1056.3 -1047.44 -1038.47 -954.024 -1011.62 -952.006 -923.079 -761.736 -942.463 -862.35
tree21 -1293.63 -1269.65 -1272.55 -1264.66 -1554.91 -1462.58 -1351.75 -1460.6 -1578.28 -1444.42 -1300.56 -1395.38 -1459.62 -1591.26 -1390.91 -1627.23 -1179.93 -1270.68 -1370.61 -1387.04 -1419.13 -1184.82 -1232.2 -1403.46 -1073.42 -1579.01 -1286.19 -1576.11 -1301.91 -1346.1 -1178.25 -1264.83 -1329.27 -1340.75 -1075.97 -1276.91 -1122.63 -1192.57 -1293.98 -1292.84 -1028.75 -1174.92 -1187.37 -1058.56 -1165.3 -1083.12 -1106.87 -981.541 -1045.16 -1141.7 -1097.23 -1280.09 -1154.78 -1231.47 -1359.04 -1008.6 -1111.86 -1248.51 -1030.55 -1219.73 -942.234 -977.007 -1086.6 -1318.64 -1082.24 -1130.72 -954.513 -1169.36 -1154.15 -1007.04 -1104.09 -1006.04 -1010.41 -1117.83 -1028.89 -1060.36 -1071.17 -947.176 -1172.77 -1067.82 -1038.89 -1070.03 -1020.19 -1039.51 -1200.84 -895.482 -928.963 -1097.01 -1003.69 -991.513 -1015.89 -1112.93 -895.278 -925.68 -948.387 -1120.27 -985.98 -928.642 -1056.3 -1047.44 -1038.75 -954.017 -1009.4 -952.005 -923.079 -761.732 -939.934 -862.35
tree22 -1299.53 -1276.7 -1272.51 -1270.65 -1554.91 -1462.63 -1351.92 -1460.6 -1578.27 -1444.42 -1306.85 -1395.32 -1459.63 -1593.6 -1391.66 -1627.23 -1180.11 -1276.86 -1373.06 -1389.83 -1419.31 -1184.82 -1234.53 -1405.83 -1073.48 -1581.01 -1286.19 -1576.11 -1302.41 -1346.1 -1178.25 -1264.83 -1329.27 -1340.43 -1075.9 -1276.91 -1125.27 -1192.57 -1294.01 -1292.84 -1035.58 -1174.92 -1187.37 -1058.53 -1171.18 -1083.12 -1106.87 -981.541 -1045.16 -1143.49 -1097.23 -1277.64 -1154.72 -1233.93 -1359.04 -1008.6 -1118.07 -1250.65 -1030.55 -1221.82 -942.208 -977.096 -1092.7 -1312.48 -1082.24 -1130.72 -954.601 -1175.54 -1154.15 -1005.78 -1106.98 -1006.01 -1010.41 -1117.83 -1031.1 -1066.51 -1073.59 -943.449 -1172.77 -1070.58 -1040.9 -1076.21 -1020.19 -1041.94 -1200.47 -890.702 -931.857 -1097.01 -1003.69 -992.634 -1015.72 -1119.1 -899.932 -925.859 -954.14 -1124.01 -985.98 -928.642 -1056.3 -1047.44 -1038.74 -951.465 -1011.62 -952.006 -923.079 -759.058 -942.325 -862.35
tree23 -1296.91 -1273.96 -1272.55 -1269.27 -1545.4 -1461.99 -1347.04 -1452.71 -1577.93 -1431.87 -1305.19 -1386.4 -1456.15 -1590.12 -1388.81 -1623.22 -1174.92 -1275.12 -1370.73 -1383.78 -1418.14 -1174.72 -1232.33 -1404.16 -1071.4 -1579.75 -1285.54 -1576.11 -1303.56 -1346.02 -1168.37 -1265.01 -1327.31 -1340.82 -1072.61 -1271.44 -1125.87 -1183.94 -1293.87 -1289.13 -1033.16 -1167.58 -1187.37 -1048.35 -1167.58 -1073.4 -1103.87 -981.44 -1038.58 -1143.79 -1087.83 -1284.08 -1146.04 -1231.58 -1359.04 -998.613 -1116.5 -1244.67 -1020.45 -1217.88 -928.592 -972.847 -1091.12 -1316.96 -1078.14 -1123.11 -946.27 -1173.9 -1152.75 -1003.37 -1104.1 -1002.64 -1010.41 -1110.65 -1029 -1067.04 -1070.85 -944.118 -1170.35 -1074.47 -1039.73 -1072.47 -1011.18 -1039.68 -1193.69 -892.25 -928.992 -1096.98 -1001.29 -993.368 -1010.56 -1117.54 -896.959 -919.582 -952.148 -1121.45 -983.32 -928.678 -1056.3 -1045.48 -1037.94 -951.004 -1002.54 -952.017 -923.193 -761.286 -938.491 -858.829
tree24 -1300.33 -1274.5 -1273.93 -1270.69 -1545.42 -1462.59 -1348.1 -1452.44 -1577.93 -1428.52 -1305.96 -1387.06 -1455.65 -1588.69 -1388.81 -1623.68 -1177.43 -1274.61 -1372.58 -1387.05 -1418.16 -1177.99 -1233.67 -1404.17 -1072.09 -1579.74 -1288.3 -1576.14 -1306.3 -1348.33 -1171.5 -1265.2 -1326.47 -1340.84 -1072.59 -1271.72 -1123.76 -1186.42 -1293.16 -1289.13 -1035.37 -1168.21 -1187.38 -1048.36 -1167.6 -1074.1 -1105.28 -980.147 -1038.58 -1143.79 -1087.81 -1284.24 -1146.04 -1233.02 -1359.04 -998.596 -1116.53 -1246.89 -1021.07 -1216.55 -928.591 -972.969 -1091.12 -1316.96 -1074.97 -1122.97 -941.69 -1176.14 -1153.01 -1007.16 -1104.42 -1002.79 -1010.42 -1111.24 -1028.97 -1065.92 -1070.73 -944.119 -1169.43 -1074.93 -1041.05 -1073.62 -1010.84 -1039.87 -1193.72 -892.251 -928.994 -1097 -1001.43 -993.342 -1010.58 -1120.01 -899.512 -921.572 -952.126 -1124.13 -983.323 -928.397 -1057.84 -1045.33 -1036.69 -950.238 -1002.67 -952.971 -923.208 -762.088 -938.478 -858.842
tree25 -1307.5 -1277.98 -1283.28 -1271.38 -1548.93 -1465.85 -1351.93 -1456.24 -1581.25 -1431.85 -1308.78 -1389.64 -1459.6 -1591.14 -1392.32 -1627.26 -1188.03 -1277.13 -1379.65 -1392.9 -1421.42 -1184.15 -1235.06 -1407.8 -1073.42 -1584.52 -1288.3 -1576.14 -1309.22 -1351.28 -1176.49 -1276.77 -1328.99 -1343.43 -1075.65 -1278.01 -1127.75 -1190.38 -1295.73 -1289.13 -1034.58 -1170.74 -1196.53 -1051.64 -1170.12 -1077.27 -1110.36 -981.541 -1041.79 -1146.28 -1091.27 -1286.72 -1149.91 -1236.73 -1362.41 -1001.83 -1119.08 -1250.63 -1023.75 -1225.97 -931.986 -979.51 -1097.91 -1319.3 -1078.35 -1125.5 -949.415 -1185.51 -1155.59 -1009.46 -1111.43 -1006.91 -1013.78 -1113.37 -1032.11 -1071.54 -1073.22 -947.262 -1172.86 -1075.97 -1045.15 -1076.45 -1014.63 -1044.9 -1193.58 -895.473 -932.428 -1099.48 -1005.23 -996.576 -1013.13 -1119.97 -903.719 -926.464 -954.615 -1124.13 -985.811 -930.832 -1061.46 -1048.48 -1036.69 -954.274 -1006.43 -956.636 -923.208 -762.556 -938.478 -862.304
tree26 -1308.37 -1278.01 -1283.28 -1271.38 -1548.93 -1465.85 -1351.04 -1456.24 -1581.25 -1431.85 -1308.78 -1389.65 -1459.6 -1591.14 -1392.32 -1626.64 -1185.44 -1277.13 -1379.65 -1392.96 -1421.42 -1184.15 -1235.06 -1407.8 -1073.42 -1584.36 -1288.3 -1576.14 -1309.23 -1351.28 -1176.49 -1274.3 -1328.99 -1343.43 -1075.65 -1279.81 -1125.11 -1190.38 -1295.73 -1289.13 -1039.03 -1170.74 -1193.44 -1051.64 -1170.03 -1078.35 -1110.36 -981.541 -1041.83 -1146.28 -1091.23 -1286.81 -1148.39 -1236.73 -1362.41 -1001.83 -1119.08 -1250.63 -1023.75 -1227.77 -931.951 -979.51 -1095.93 -1320.8 -1078.35 -1125.5 -949.412 -1183.27 -1155.59 -1009.64 -1113.18 -1005.93 -1013.78 -1113.37 -1032.11 -1071.54 -1073.22 -947.216 -1172.86 -1075.97 -1045.15 -1076.45 -1012.96 -1044.9 -1198.62 -895.429 -932.47 -1099.4 -1003.7 -996.626 -1013.04 -1120.05 -904.643 -929.683 -954.615 -1124.13 -985.811 -930.921 -1061.34 -1047.12 -1036.69 -954.274 -1004.78 -956.636 -923.208 -762.556 -938.478 -862.304
tree27 -1300.25 -1274.48 -1274.75 -1270.41 -1544.62 -1462.58 -1346.16 -1452.71 -1577.92 -1431.83 -1305.94 -1387.04 -1456.22 -1591.43 -1388.81 -1623.25 -1177.31 -1275.15 -1373.3 -1386.28 -1418.16 -1176.28 -1234.04 -1404.08 -1073.48 -1579.54 -1288.29 -1576.13 -1306.27 -1347.79 -1170.89 -1265.23 -1327.31 -1340.48 -1070.39 -1271.88 -1127.44 -1185.78 -1293.88 -1289.13 -1035.37 -1168.29 -1187.36 -1048.36 -1167.38 -1074.73 -1105.79 -981.444 -1038.58 -1143.79 -1087.83 -1284.21 -1146.04 -1231.58 -1359.04 -998.612 -1116.52 -1246.35 -1021.07 -1218.8 -928.591 -972.287 -1091.11 -1316.96 -1077.54 -1123.11 -948.408 -1176.12 -1152.98 -1008.62 -1104.41 -1002.78 -1010.41 -1111.2 -1028.97 -1067.71 -1070.86 -944.119 -1170.42 -1071.05 -1041.2 -1073.5 -1011.16 -1039.83 -1193.69 -892.25 -928.993 -1096.96 -1001.42 -992.241 -1010.46 -1119.95 -898.787 -921.6 -952.155 -1124.11 -983.318 -928.697 -1056.69 -1046.04 -1036.67 -952.242 -1004.85 -952.992 -923.179 -761.244 -938.488 -858.262
tree28 -1302.5 -1274.37 -1279.01 -1269.85 -1544.62 -1461.98 -1346.64 -1452.72 -1580.84 -1436.3 -1306.74 -1383.33 -1457.81 -1593.37 -1390.89 -1625.4 -1182.59 -1277.76 -1369.57 -1387.1 -1418.27 -1182.85 -1233.69 -1404.23 -1073.42 -1579.67 -1288.27 -1576.12 -1306.26 -1347.38 -1171.85 -1265.11 -1327.31 -1340.46 -1068.23 -1272.82 -1129.92 -1186.4 -1293.31 -1292.74 -1037.11 -1168.13 -1187.36 -1048.36 -1169.91 -1075.94 -1106.16 -981.446 -1041.78 -1143.78 -1090.42 -1284.2 -1146.09 -1236 -1359.04 -998.59 -1117.08 -1246.6 -1023.22 -1221.89 -929.192 -975.469 -1091.12 -1316.97 -1081.49 -1123.09 -952.098 -1177.4 -1152.59 -1008.17 -1107.25 -1004.58 -1010.43 -1111.22 -1030.36 -1065.52 -1073.11 -944.269 -1170.53 -1069.43 -1039.52 -1072.18 -1012.47 -1039.82 -1193.69 -892.25 -928.994 -1096.96 -1001.22 -992.847 -1010.46 -1119.81 -904.547 -919.615 -954.544 -1121.63 -983.32 -928.724 -1058.52 -1047.33 -1036.68 -952.038 -1007.67 -953.015 -923.199 -759.231 -938.635 -859.408
tree29 -1299.53 -1274.7 -1279.23 -1268.79 -1544.62 -1462.58 -1344.38 -1452.5 -1581.32 -1434.67 -1301.05 -1387.11 -1457.8 -1592.53 -1390.72 -1625.51 -1181.85 -1277.76 -1372.19 -1386.84 -1418.3 -1182.85 -1231.66 -1404.25 -1073.48 -1578.97 -1285.81 -1576.13 -1303.88 -1345.4 -1173.37 -1265.22 -1326.47 -1340.48 -1071.69 -1267.59 -1130.37 -1187.13 -1293.93 -1288.89 -1037.18 -1167.45 -1187.36 -1048.35 -1169.92 -1070.35 -1101.55 -979.273 -1041.15 -1143.79 -1086.92 -1284.24 -1146.09 -1235.31 -1359.04 -998.616 -1117.4 -1244.66 -1016.46 -1222.52 -929.162 -974.406 -1091.11 -1316.96 -1080.14 -1123.11 -952.1 -1173.03 -1152.97 -1006.36 -1106.87 -998.765 -1010.43 -1110.63 -1030.97 -1068.81 -1072.24 -944.27 -1170.51 -1071.57 -1041.18 -1073.49 -1007.57 -1039.55 -1193.69 -892.25 -928.993 -1096.96 -1001.42 -992.846 -1010.46 -1118.63 -904.486 -921.605 -954.544 -1124.11 -983.318 -928.553 -1058.37 -1047.11 -1036.65 -951.662 -1001.55 -952.403 -923.176 -761.848 -938.636 -859.369
tree30 -1296.91 -1272.93 -1274.71 -1266.89 -1544.78 -1462.22 -1347.15 -1452.5 -1577.89 -1436.14 -1305.2 -1386.98 -1456.23 -1588.68 -1389.01 -1621.22 -1177.28 -1274.63 -1371.45 -1381.52 -1418.14 -1174.72 -1232.33 -1404.02 -1071.73 -1579.62 -1287.38 -1576.12 -1302.06 -1343.9 -1168.37 -1265.21 -1327.64 -1340.04 -1068.61 -1269.17 -1125.2 -1185.95 -1294.05 -1289.13 -1033.38 -1166.41 -1187.65 -1048.34 -1169.71 -1073.06 -1100.96 -975.096 -1040.23 -1145.92 -1087.81 -1284.18 -1146.04 -1231.58 -1359.03 -998.921 -1116.54 -1244.44 -1020.5 -1215.39 -931.395 -973.589 -1091.71 -1316.99 -1078.88 -1123.86 -946.21 -1173.22 -1153.48 -1004.27 -1103.89 -1002.64 -1010.41 -1110.6 -1032.25 -1066.34 -1070.91 -946.935 -1169.6 -1075.28 -1039.31 -1073.79 -1011.48 -1039.85 -1193.7 -892.256 -928.992 -1095.75 -1001.15 -992.507 -1013.7 -1117.61 -897.93 -920.393 -952.453 -1121.02 -983.345 -928.242 -1056.25 -1042.32 -1038.28 -951.624 -1005.91 -952.04 -923.069 -758.651 -938.088 -858.267
tree31 -1297.32 -1276.55 -1274.71 -1264.77 -1544.77 -1463.35 -1349.47 -1452.5 -1577.9 -1436.16 -1307.28 -1386.53 -1456.54 -1588.73 -1389.71 -1621.23 -1180.11 -1275.61 -1372.98 -1382.5 -1419.05 -1178.02 -1232.92 -1404.02 -1072.11 -1579.62 -1287.5 -1576.12 -1302.08 -1346.27 -1168.36 -1268.5 -1328.79 -1337.47 -1075.24 -1271.7 -1129.31 -1188.15 -1294.05 -1291.76 -1033.09 -1165.43 -1187.59 -1048.34 -1170.2 -1074.34 -1103.36 -981.384 -1040.62 -1149.44 -1087.81 -1284.39 -1146.05 -1232.65 -1359.03 -1000.39 -1116.51 -1244.66 -1020.9 -1215.46 -933.086 -972.945 -1091.3 -1316.99 -1078.77 -1123.86 -946.164 -1173.29 -1153.6 -1002.74 -1103.9 -1006.06 -1013.28 -1110.07 -1033.16 -1068.02 -1070.79 -950.82 -1172.72 -1075.95 -1039.33 -1073.22 -1013.77 -1041.72 -1193.65 -893.122 -928.992 -1098.2 -1001.16 -992.518 -1016.15 -1117.45 -897.971 -920.42 -952.46 -1120.88 -983.346 -928.228 -1056.25 -1041.72 -1038.37 -951.058 -1008.07 -952.042 -922.914 -758.897 -938.712 -858.267
tree32 -1300.8 -1282.2 -1274.71 -1271.59 -1544.76 -1466.76 -1353.63 -1452.48 -1577.91 -1438.89 -1310.93 -1389.38 -1459.72 -1592.36 -1393.24 -1621.23 -1179.93 -1278.27 -1370.63 -1382.63 -1419.02 -1184.82 -1232.31 -1404.02 -1073.42 -1579.61 -1287.99 -1576.12 -1304.61 -1350.57 -1171.61 -1274.13 -1326.39 -1338.29 -1075.8 -1275.6 -1128.98 -1190.81 -1294.02 -1295.32 -1036.93 -1165.42 -1187.59 -1051.65 -1172.98 -1074.34 -1105.85 -981.542 -1043.88 -1149.79 -1091.27 -1284.8 -1148.58 -1232.16 -1359.04 -997.966 -1119.16 -1244.66 -1024.24 -1217.97 -935.86 -972.945 -1094.19 -1316.96 -1082.21 -1123.72 -949.442 -1172.89 -1156.2 -1002.73 -1104.5 -1006.06 -1017.53 -1110.02 -1033.17 -1066.57 -1073.28 -951.514 -1174.91 -1075.9 -1039.34 -1075.71 -1013.77 -1041.72 -1196.13 -892.755 -928.992 -1098.2 -1001.16 -995.684 -1015.97 -1117.4 -900.47 -920.063 -952.472 -1120.23 -983.333 -930.715 -1059.68 -1041.72 -1041.8 -951.198 -1011.29 -955.664 -922.914 -762.213 -937.275 -858.267
tree33 -1300.8 -1282.2 -1274.71 -1271.59 -1544.67 -1466.76 -1353.63 -1452.5 -1577.9 -1439.49 -1310.93 -1388.71 -1459.28 -1592.22 -1392.6 -1621.23 -1180.11 -1278.27 -1372.55 -1379.76 -1416.68 -1184.82 -1233.72 -1404.02 -1073.49 -1579.63 -1287.99 -1576.12 -1304.61 -1350.49 -1171.57 -1273.82 -1328.55 -1338.36 -1075.8 -1274.22 -1125.74 -1191.67 -1294.05 -1295.32 -1036.93 -1165.41 -1187.59 -1051.65 -1172.98 -1074.34 -1105.77 -981.542 -1043.84 -1146.54 -1091.27 -1284.82 -1148.58 -1230.5 -1359.04 -1000.22 -1119.16 -1244.66 -1024.2 -1217.97 -936.533 -972.945 -1094.19 -1316.64 -1082.21 -1123.85 -949.442 -1172.57 -1154.84 -1002.73 -1104.35 -1006.06 -1017.53 -1110.07 -1033.17 -1066.75 -1073.28 -951.557 -1174.91 -1074.15 -1039.13 -1075.04 -1013.77 -1041.72 -1195.41 -893.15 -928.99 -1098.2 -1001.16 -995.684 -1016.15 -1117.45 -900.47 -920.41 -952.284 -1120.89 -983.344 -930.715 -1059.68 -1041.72 -1041.8 -950.175 -1009.49 -955.664 -922.914 -762.165 -938.994 -858.268
tree34 -1295.38 -1275.5 -1274.71 -1267.57 -1544.78 -1463.24 -1349.49 -1452.46 -1577.9 -1435.9 -1306.55 -1385.92 -1456.52 -1589.65 -1389.71 -1621.23 -1179.98 -1275.56 -1373.58 -1381.47 -1418.96 -1178.02 -1230.19 -1404.02 -1073.38 -1579.59 -1284.76 -1576.13 -1302.07 -1346.27 -1168.37 -1268.5 -1327.88 -1339.98 -1075.24 -1272.73 -1129.02 -1184.48 -1294.07 -1291.76 -1033.3 -1166.83 -1187.68 -1048.34 -1170.06 -1074.73 -1103.37 -981.384 -1037.75 -1149.46 -1087.81 -1283.7 -1146.05 -1233.11 -1359.03 -1000.05 -1116.68 -1244.11 -1020.85 -1215.28 -932.759 -973.601 -1091.75 -1316.8 -1078.29 -1123.66 -946.213 -1172.28 -1154.01 -1005.09 -1103.88 -1006.06 -1013.28 -1110.43 -1033.12 -1067.95 -1070.91 -950.831 -1172.59 -1075.82 -1039.27 -1073.76 -1012.59 -1037.48 -1193.7 -893.058 -928.992 -1098.24 -1001.15 -992.511 -1016.15 -1117.58 -898.562 -920.08 -952.234 -1117.97 -983.35 -928.252 -1056.25 -1039.44 -1038.33 -950.652 -1008.15 -952.011 -923.069 -758.107 -936.183 -858.264
tree35 -1295.06 -1281.62 -1274.71 -1265.29 -1544.78 -1460.54 -1349.5 -1452.46 -1577.96 -1435.9 -1310.39 -1385.95 -1457.84 -1589.19 -1389.72 -1621.37 -1180.66 -1276.37 -1376.07 -1381.37 -1419.1 -1184.81 -1228 -1404.06 -1073.45 -1579.62 -1286.62 -1576.82 -1302.08 -1346.27 -1171.65 -1271.2 -1330.03 -1342.45 -1075.8 -1272.51 -1131.59 -1190.63 -1295.61 -1291.94 -1033.3 -1165.14 -1190.08 -1051.08 -1169.54 -1071.03 -1103.37 -979.32 -1042.99 -1144.35 -1087.81 -1282.17 -1146.48 -1232.02 -1359.05 -1000.26 -1116.47 -1244.1 -1020.75 -1214.23 -928.698 -976.883 -1091.72 -1316.13 -1077.26 -1121.72 -949.494 -1172.26 -1152.04 -1004.05 -1103.87 -1012.05 -1013.28 -1110.34 -1033.12 -1068.02 -1070.85 -951.524 -1168.05 -1073.72 -1040.54 -1073.51 -1017.95 -1034.99 -1193.67 -896.413 -929.096 -1100.44 -1001.15 -992.511 -1015.11 -1117.65 -894.279 -922.297 -952.23 -1120.13 -985.698 -930.269 -1056.25 -1039.9 -1038.35 -949.639 -1009.32 -952.712 -922.941 -756.104 -936.187 -858.269
tree36 -1302.47 -1280.94 -1274.71 -1265.29 -1544.78 -1461.6 -1353.59 -1454.64 -1579.75 -1435.9 -1312.68 -1385.71 -1461.01 -1589.19 -1389.42 -1621.37 -1180.76 -1278.6 -1376.63 -1386.45 -1419.53 -1188.8 -1226.63 -1404.05 -1069.94 -1579.62 -1290.48 -1578.42 -1304.37 -1350.33 -1178.37 -1269.23 -1329.99 -1347.74 -1077.47 -1274.86 -1134.21 -1192.27 -1295.67 -1295.27 -1036.38 -1172.01 -1191.95 -1056.88 -1165.97 -1077.89 -1105.59 -979.321 -1044.56 -1144.34 -1091.27 -1281.44 -1141.83 -1238.3 -1362.41 -1002.36 -1117.86 -1244.09 -1024.18 -1214.23 -935.719 -977.096 -1089.42 -1315.78 -1077.24 -1121.42 -956.253 -1171.56 -1154.32 -1007.66 -1107.44 -1016.07 -1017.53 -1112.02 -1033.17 -1066.2 -1073.34 -951.662 -1168.09 -1075.91 -1038.49 -1073.52 -1022.36 -1036.8 -1193.68 -900.691 -930.212 -1100.81 -1002.41 -992.638 -1015.12 -1120.24 -900.964 -923.328 -952.23 -1119.37 -986.504 -930.537 -1056.25 -1039.51 -1041.65 -949.63 -1006.99 -952.542 -924.994 -756.059 -936.187 -858.267
tree37 -1302.47 -1282.34 -1273.2 -1265.29 -1544.78 -1459.24 -1353.78 -1454.48 -1579.43 -1435.9 -1307.72 -1385.91 -1461.13 -1589.03 -1389.77 -1621.37 -1180.77 -1277.85 -1376.49 -1385.65 -1419.5 -1188.9 -1227.71 -1404.05 -1073.44 -1579.64 -1290.62 -1575.4 -1304.48 -1350.45 -1178.37 -1268.98 -1330.04 -1347.18 -1075.75 -1274.86 -1131.3 -1192.25 -1296 -1293.96 -1036.6 -1172.01 -1188.51 -1052.84 -1169.76 -1077.64 -1105.89 -982.053 -1045.36 -1141.81 -1091.27 -1282.42 -1147.07 -1238.31 -1362.41 -995.548 -1118.12 -1244.1 -1024.21 -1214.15 -935.698 -977.095 -1092.76 -1314.44 -1077.26 -1120.19 -956.252 -1172.26 -1154.52 -1009.04 -1107.44 -1016.07 -1017.53 -1111.95 -1033.16 -1066.16 -1073.35 -951.712 -1170.74 -1075.92 -1040.27 -1073.37 -1022.36 -1037.45 -1193.64 -898.662 -930.245 -1098.98 -1002.42 -992.642 -1016.94 -1120.18 -900.963 -924.132 -952.228 -1120.14 -982.012 -926.435 -1056.25 -1039.98 -1037.65 -949.594 -1009.32 -955.258 -925.042 -756.017 -936.187 -858.269
tree38 -1300.4 -1281.96 -1274.71 -1267.02 -1544.78 -1463.6 -1347.08 -1452.46 -1577.89 -1435.87 -1309.71 -1385.03 -1452.82 -1589.63 -1389.12 -1621.37 -1173.68 -1271.01 -1375.69 -1380.52 -1419.1 -1184.81 -1230.48 -1404.06 -1073.5 -1579.61 -1286.97 -1577.01 -1302.05 -1343.9 -1171.65 -1272.52 -1328.54 -1343.08 -1075.8 -1273.24 -1129.34 -1190.39 -1295.85 -1288.6 -1033.3 -1169.7 -1190.14 -1051.48 -1169.7 -1075.01 -1103.37 -981.54 -1042.66 -1145.78 -1087.81 -1283.96 -1146.51 -1235.84 -1359.05 -999.681 -1116.66 -1244.11 -1019.78 -1213.16 -930.733 -976.883 -1091.69 -1316.53 -1077.16 -1123.65 -949.494 -1172.19 -1154.26 -1008.6 -1103.88 -1010.42 -1010.41 -1109.59 -1030.08 -1066.92 -1070.93 -951.741 -1173.2 -1075.82 -1040.91 -1073.9 -1018.04 -1037.46 -1193.7 -896.412 -929.099 -1100.38 -1001.15 -992.507 -1016.15 -1117.4 -899.374 -922.247 -952.241 -1120.76 -985.675 -930.278 -1056.25 -1038.96 -1038.34 -950.562 -1007.09 -952.681 -923.08 -755.513 -936.165 -858.269
tree39 -1302.47 -1282.28 -1274.71 -1268.25 -1545.2 -1466.26 -1349.64 -1452.47 -1578 -1435.89 -1312.09 -1386.72 -1453.62 -1591.19 -1389.21 -1622.06 -1180.04 -1276.72 -1378.4 -1383.35 -1418.65 -1189.16 -1233.78 -1405.95 -1073.5 -1579.61 -1285.47 -1577.26 -1304.51 -1346.27 -1178.31 -1274.03 -1327.58 -1342.61 -1075.8 -1270.2 -1133.06 -1191.67 -1296.11 -1289.31 -1036.78 -1172.83 -1192.2 -1053.57 -1172.15 -1079.57 -1104.6 -981.541 -1044.71 -1151.59 -1088.37 -1286.79 -1148.92 -1238.7 -1359.13 -1002.91 -1119.02 -1245.82 -1020.05 -1217.18 -931.154 -977.095 -1094.18 -1317.99 -1081.23 -1125.53 -956.25 -1174.11 -1153.7 -1009.11 -1103.93 -1009.31 -1010.42 -1111.54 -1033.24 -1070.48 -1073.09 -954.935 -1171.11 -1075.81 -1044.71 -1076.27 -1019.78 -1041.25 -1193.72 -900.69 -925.352 -1100.08 -1003.43 -995.676 -1014.05 -1118.88 -899.963 -922.458 -954.767 -1123.14 -983.32 -933.559 -1058.19 -1038.95 -1038.34 -953.635 -1009.39 -952.662 -923.616 -762.615 -936.162 -858.442
tree40 -1301.08 -1282.34 -1274.71 -1266.26 -1545.19 -1466.35 -1349.64 -1452.47 -1578.02 -1435.89 -1312.03 -1387.68 -1455.63 -1591.11 -1389.21 -1622.07 -1180.04 -1274.99 -1377.69 -1383.58 -1419.08 -1189.13 -1231.72 -1405.82 -1073.5 -1579.58 -1287.45 -1577.26 -1304.51 -1346.38 -1178.35 -1273.95 -1330.46 -1344.55 -1075.8 -1272.51 -1133.25 -1186.75 -1294.89 -1289.32 -1036.78 -1173.47 -1193.71 -1050.69 -1171.88 -1079.57 -1104.59 -981.541 -1044.71 -1151.59 -1088.39 -1286.82 -1148.92 -1238.65 -1359.13 -1002.91 -1118.88 -1245.86 -1020.01 -1219.12 -931.138 -977.095 -1094.18 -1317.82 -1081.8 -1124.3 -956.251 -1174.72 -1152.61 -1008.86 -1103.93 -1010.22 -1010.42 -1111.64 -1033.24 -1070.94 -1072.99 -954.935 -1169.7 -1073.72 -1044.61 -1076.36 -1016.23 -1042.63 -1193.69 -900.69 -929.341 -1099.27 -1003.64 -995.676 -1016.15 -1118.23 -895.74 -922.923 -954.766 -1122.93 -985.676 -933.554 -1058.2 -1038.95 -1038.34 -953.646 -1009.37 -951.97 -923.618 -762.616 -936.134 -858.441
tree41 -1296.91 -1271.88 -1273.36 -1262.52 -1544.77 -1461.98 -1347.33 -1452.42 -1577.89 -1435.98 -1305.2 -1385.73 -1456.05 -1587.1 -1388.81 -1621.18 -1174.83 -1275.3 -1371.81 -1380.94 -1418.17 -1174.72 -1232.13 -1404.02 -1070.14 -1579.59 -1282.55 -1576.12 -1303.2 -1345.69 -1168.33 -1265.01 -1327 -1341.53 -1072.52 -1269.36 -1122.64 -1184.56 -1293.99 -1289.16 -1033.39 -1164.84 -1187.58 -1048.34 -1169.09 -1073.6 -1102.59 -973.36 -1039.32 -1145.92 -1087.85 -1283.71 -1146.82 -1231.56 -1359.05 -998.696 -1116.51 -1249.11 -1020.5 -1215.05 -928.588 -970.066 -1091.87 -1316.89 -1078.45 -1122.34 -946.191 -1171.99 -1152.15 -1005.86 -1103.88 -1002.63 -1010.41 -1109.91 -1031.74 -1064.67 -1071.16 -944.116 -1170.49 -1075.73 -1039.29 -1073.54 -1011.3 -1039.66 -1193.67 -892.25 -928.992 -1096.88 -1001.33 -992.505 -1010.08 -1117.62 -895.317 -920.071 -952.162 -1121.18 -983.434 -928.263 -1056.25 -1040.42 -1036.66 -951.323 -1003.12 -952.024 -923.321 -760.421 -938.796 -858.264
tree42 -1296.92 -1271.88 -1273.59 -1265.59 -1544.77 -1461.98 -1348.65 -1452.42 -1577.89 -1435.95 -1305.84 -1384.16 -1456.04 -1587.05 -1388.81 -1621.18 -1176.77 -1275.3 -1371.88 -1380.94 -1418.17 -1176.67 -1231.74 -1404.02 -1070.46 -1579.59 -1282.61 -1576.18 -1299.64 -1347.48 -1168.33 -1265.01 -1327 -1346.64 -1075.75 -1265.54 -1122.64 -1186.68 -1294.15 -1289.16 -1033.39 -1164.99 -1186.33 -1048.34 -1168.89 -1073.86 -1102.61 -973.386 -1039.65 -1147.29 -1087.96 -1283.72 -1146.84 -1233.64 -1359.05 -999.428 -1118.55 -1252.15 -1020.49 -1214.79 -930.694 -975.332 -1092.85 -1316.89 -1078.44 -1120.64 -946.191 -1171.98 -1151.9 -1006.23 -1103.9 -1002.63 -1010.41 -1108.8 -1031.56 -1070.68 -1070.37 -944.09 -1170.5 -1076.01 -1040.92 -1073.86 -1012.61 -1039.62 -1193.67 -892.256 -929.029 -1098.17 -1001.7 -992.505 -1008.74 -1118.12 -899.515 -920.218 -952.16 -1121.12 -983.438 -928.311 -1056.25 -1040.45 -1037 -951.196 -1003.69 -952.024 -925.416 -758.62 -938.406 -858.264
tree43 -1298.84 -1271.87 -1271.49 -1264.53 -1544.77 -1461.99 -1346.87 -1452.42 -1577.9 -1435.95 -1305.77 -1384.15 -1456.04 -1587.04 -1388.81 -1621.18 -1174.85 -1274.96 -1372.24 -1380.85 -1418.18 -1174.04 -1233.07 -1404.02 -1073.32 -1579.6 -1281.99 -1576.22 -1305.41 -1346.59 -1168.7 -1265 -1327 -1347.08 -1073.71 -1264.4 -1125.03 -1187.19 -1295.22 -1289.16 -1033.39 -1164.63 -1190.07 -1048.34 -1169.72 -1076.73 -1102.58 -973.721 -1039.63 -1147.29 -1087.71 -1283.66 -1147.95 -1230.91 -1359.05 -1002.75 -1119.94 -1250.18 -1020.29 -1214.77 -930.975 -976.981 -1093.38 -1316.89 -1078.45 -1120.48 -946.193 -1171.99 -1151.33 -1005.74 -1103.91 -1003.16 -1010.41 -1108.85 -1029.44 -1072.28 -1068.95 -944.091 -1171.48 -1075.13 -1040.75 -1073.5 -1012.37 -1041.44 -1193.6 -892.26 -931.995 -1097.4 -1002.18 -992.507 -1008.32 -1118.07 -902.782 -920.819 -952.188 -1121.5 -983.424 -930.045 -1056.25 -1040.45 -1037 -949.749 -1006.23 -952.024 -922.741 -758.65 -939.476 -858.44
tree44 -1298.58 -1271.86 -1271.07 -1265.51 -1544.86 -1464.44 -1346.33 -1452.42 -1579.56 -1436 -1304.21 -1382.15 -1456.03 -1587.04 -1388.81 -1621.29 -1172.46 -1272.46 -1369.75 -1380.84 -1418.18 -1174.04 -1234.5 -1404.56 -1070.41 -1579.62 -1281.81 -1576.31 -1305.69 -1346.85 -1168.73 -1265.38 -1324.54 -1347.7 -1075.79 -1265.38 -1122.25 -1187.27 -1295.38 -1290.4 -1033.28 -1165.06 -1189.01 -1050.59 -1168.92 -1080.24 -1099.53 -971.961 -1042.16 -1149.34 -1083.26 -1283.7 -1147.89 -1233.49 -1359.06 -999.07 -1121.78 -1249.92 -1024 -1214.76 -934.017 -975.587 -1089.37 -1316.9 -1078.44 -1121.24 -946.181 -1174.09 -1151.39 -1006.95 -1104.08 -1003.81 -1013.64 -1106.47 -1028.01 -1073.23 -1068.82 -945.388 -1173.22 -1075.57 -1041.36 -1073.48 -1010.94 -1042.74 -1193.61 -894.825 -931.956 -1098.96 -1002.09 -995.546 -1008.33 -1117.91 -898.316 -921.222 -952.171 -1122.77 -983.436 -931.473 -1056.25 -1040.44 -1037.54 -946.235 -1005.93 -952.002 -923.242 -758.651 -940.05 -858.452
tree45 -1295.78 -1274.42 -1274.58 -1268.51 -1544.87 -1468.65 -1348.09 -1452.42 -1582.29 -1438.95 -1309.26 -1384.46 -1456.03 -1587.05 -1392.32 -1624.23 -1177.42 -1274.59 -1374.33 -1380.84 -1421.07 -1177.21 -1237.45 -1405.19 -1073.25 -1579.93 -1281.91 -1577.37 -1305.42 -1349.12 -1175.13 -1268.63 -1324.59 -1349.85 -1073.54 -1265.38 -1125.19 -1188.82 -1298.35 -1294.38 -1036.71 -1164.59 -1191.41 -1053.93 -1170.9 -1080.61 -1107.62 -975.216 -1044.5 -1150.83 -1088.57 -1289.55 -1150.09 -1236.59 -1362.37 -1004.67 -1122.2 -1249.9 -1026.11 -1217.26 -938.425 -974.997 -1093.96 -1319.3 -1081.82 -1123.83 -949.477 -1177.88 -1153.9 -1008.09 -1107.66 -1007.28 -1020.35 -1111.07 -1031.26 -1073.07 -1071.28 -948.798 -1172.52 -1077.5 -1039.9 -1076.64 -1019.21 -1045.39 -1195.1 -896.32 -935.203 -1098.14 -1002.09 -1000.41 -1010.58 -1116.29 -898.316 -923.082 -954.697 -1122.89 -985.938 -934.095 -1056.25 -1040.45 -1037.55 -951.852 -1008.25 -955.624 -921.778 -761.906 -942.521 -861.893
tree46 -1298.24 -1274.42 -1274.66 -1268.61 -1544.82 -1468.86 -1348.55 -1452.42 -1582.18 -1438.8 -1309.17 -1384.45 -1456.03 -1587.04 -1392.35 -1624.84 -1177.32 -1272.98 -1374.32 -1380.84 -1420.9 -1176.99 -1237.45 -1405.18 -1073.26 -1579.89 -1281.92 -1577.44 -1306.54 -1350.33 -1174.95 -1268.67 -1323.14 -1350.02 -1075.72 -1265.38 -1124.96 -1188.82 -1298.31 -1294.38 -1036.74 -1165.07 -1191.29 -1053.93 -1172.26 -1082.8 -1107.61 -974.999 -1045.71 -1151.03 -1089.58 -1289.19 -1150.09 -1237.33 -1362.4 -1006.26 -1122.98 -1249.93 -1026.94 -1217.34 -938.46 -976.982 -1093.87 -1319.39 -1081.52 -1124.38 -949.477 -1177.92 -1153.79 -1007.92 -1107.66 -1007.28 -1020.37 -1112 -1033.2 -1073.98 -1071.08 -948.846 -1173.26 -1077.6 -1042.51 -1076.63 -1019.67 -1045.2 -1195.09 -896.326 -935.216 -1098.68 -1002.09 -1000.64 -1010.64 -1118 -898.316 -923.084 -954.695 -1119.96 -985.75 -933.891 -1056.25 -1040.44 -1037.11 -951.834 -1008.24 -955.624 -923.643 -761.906 -942.588 -861.933
tree47 -1296.59 -1271.87 -1274.61 -1263.81 -1544.81 -1464.05 -1346.86 -1452.42 -1578.91 -1435.99 -1306.72 -1384.13 -1456.04 -1587.05 -1388.81 -1621.28 -1174.78 -1276.61 -1371.83 -1380.85 -1418.18 -1174.04 -1235.03 -1404.56 -1073.19 -1579.62 -1281.99 -1576.3 -1302.83 -1349.06 -1168.67 -1265.36 -1327.05 -1347.66 -1072 -1265.43 -1124.94 -1186.56 -1295.22 -1290.2 -1034.12 -1165.06 -1190.16 -1050.34 -1168.83 -1079.99 -1102.64 -973.735 -1041.82 -1148.9 -1087.45 -1283.65 -1146.04 -1231.06 -1359.06 -1000.94 -1121.41 -1250.08 -1023.98 -1214.77 -934.01 -976.933 -1093 -1316.89 -1078.45 -1122.54 -946.194 -1173.43 -1151.38 -1006.63 -1104.05 -1003.81 -1013.74 -1109.12 -1025.26 -1071.4 -1068.94 -945.197 -1172.47 -1074.95 -1042.96 -1072.06 -1014.47 -1043.18 -1193.61 -893.555 -932.767 -1098.56 -1001.45 -994.927 -1008.33 -1116.36 -901.779 -920.689 -952.191 -1122.77 -983.422 -931.37 -1056.25 -1040.41 -1037.54 -950.821 -1006.35 -951.997 -924.347 -758.645 -939.193 -858.292
tree48 -1296.6 -1272.72 -1273.77 -1266.32 -1544.19 -1466.84 -1346.53 -1452.43 -1580.91 -1435.96 -1306.81 -1386.44 -1457.48 -1589.58 -1388.81 -1621.28 -1175.85 -1277.16 -1371.36 -1380.87 -1418.51 -1177.3 -1235.06 -1401.98 -1073.19 -1579.62 -1282 -1576.33 -1303.1 -1346.17 -1168.78 -1265.34 -1326.84 -1347.34 -1069.37 -1264.71 -1126.17 -1187.2 -1295.22 -1291.11 -1034.28 -1165.06 -1192.69 -1049.61 -1170.65 -1079.99 -1102.64 -971.347 -1038.95 -1146.7 -1087.83 -1285.15 -1146.11 -1233.33 -1359.06 -997.903 -1117.04 -1250.08 -1026.5 -1214.76 -934.009 -976.188 -1094.94 -1316.93 -1078.44 -1119.94 -947.921 -1173.14 -1151.38 -1004.23 -1105.63 -1004.69 -1018.17 -1110.67 -1025.27 -1069.99 -1068.92 -946.498 -1173.32 -1075.52 -1041.72 -1072.27 -1012.37 -1038.82 -1193.61 -890.46 -934.349 -1100.01 -1003.82 -996.249 -1008.33 -1116.3 -904.415 -921.081 -952.356 -1121.72 -983.42 -931.351 -1056.25 -1040.41 -1037.12 -953.492 -1006.01 -952.005 -924.185 -758.649 -939.187 -858.283
tree49 -1296.6 -1272.72 -1274.63 -1263.9 -1544.76 -1466.85 -1344.98 -1452.43 -1581.1 -1435.99 -1306.77 -1386.86 -1456.67 -1589.57 -1388.81 -1621.13 -1177.72 -1276.31 -1365.94 -1380.84 -1418.53 -1176.61 -1234.2 -1406.11 -1069.79 -1579.62 -1281.81 -1576.36 -1301.52 -1348.75 -1167.88 -1265.19 -1327.02 -1347.33 -1068.27 -1263.18 -1126.92 -1187.39 -1295.08 -1290.94 -1031.12 -1164.62 -1192.8 -1048.17 -1169.76 -1077.5 -1102.64 -973.924 -1041.53 -1147.17 -1087.85 -1285.35 -1146.06 -1233.33 -1359.06 -996.293 -1121.29 -1249.72 -1020.39 -1214.7 -931.015 -975.19 -1093.19 -1316.96 -1078.44 -1121.02 -947.143 -1171.06 -1151.32 -1006.63 -1105.62 -1004.93 -1018.42 -1110.56 -1022.49 -1072.36 -1068.88 -946.414 -1173.9 -1073.21 -1041.97 -1072.23 -1010.89 -1043.26 -1193.62 -893.427 -934.146 -1098.79 -1002.52 -998.064 -1008.33 -1116.36 -904.462 -919.323 -952.595 -1122.74 -983.426 -930.208 -1056.25 -1040.42 -1037.56 -953.156 -1006.31 -951.994 -922.778 -758.647 -938.698 -858.295
tree50 -1299.74 -1271.89 -1269.78 -1264.51 -1544.77 -1461.98 -1347.4 -1452.43 -1577.89 -1435.95 -1305.01 -1382.17 -1456.04 -1587.05 -1388.81 -1621.18 -1176.13 -1275.83 -1371.66 -1380.95 -1418.18 -1176.45 -1233.45 -1404.02 -1073.33 -1579.6 -1282.31 -1576.17 -1303.61 -1347.45 -1168.67 -1264.93 -1326.7 -1344.88 -1075.73 -1266.82 -1125.11 -1187.71 -1294.93 -1289.14 -1033.38 -1164.99 -1190.12 -1048.34 -1169.83 -1076.31 -1102.56 -973.544 -1039.5 -1147.06 -1088.12 -1283.71 -1146.96 -1235.72 -1359.05 -1002.75 -1120.02 -1252.15 -1020.29 -1214.78 -930.221 -976.978 -1091.83 -1316.89 -1078.45 -1120.83 -946.192 -1171.98 -1151.87 -1004.18 -1103.86 -1003.16 -1010.41 -1109.03 -1030.64 -1071.85 -1070.16 -944.071 -1172.31 -1074.85 -1044.05 -1070.85 -1011.75 -1040.55 -1193.68 -892.255 -931.548 -1097.9 -1001.88 -992.506 -1008.73 -1117.5 -902.641 -920.612 -952.19 -1121.13 -983.461 -929.785 -1056.25 -1040.39 -1036.35 -950.582 -1006.35 -952.024 -925.94 -758.664 -939.652 -858.428
tree51 -1299.8 -1271.89 -1271.38 -1266.54 -1544.78 -1461.98 -1346.37 -1452.43 -1577.89 -1435.96 -1305.86 -1382.15 -1456.06 -1587.05 -1388.81 -1621.18 -1176.66 -1275.51 -1371.76 -1383.76 -1418.17 -1178.14 -1232.28 -1404.02 -1073.33 -1579.6 -1282.37 -1576.13 -1303.58 -1347.45 -1168.06 -1264.94 -1325.87 -1347.21 -1075.73 -1269.57 -1125.22 -1186.98 -1295.74 -1289.14 -1033.41 -1164.41 -1192.16 -1048.35 -1169 -1079.48 -1102.86 -973.784 -1040.39 -1146.71 -1088.69 -1283.62 -1144.3 -1233.73 -1359.04 -1004.6 -1119.23 -1253.99 -1021 -1214.78 -930.222 -973.678 -1092.16 -1316.89 -1078.5 -1121 -946.792 -1171.98 -1151.25 -1004.16 -1103.85 -1002.65 -1010.41 -1109.21 -1028.34 -1071.59 -1071.63 -946.513 -1171.38 -1074.45 -1044.34 -1074.25 -1012.57 -1039.65 -1193.61 -892.266 -932.154 -1097.78 -1002.02 -992.51 -1008.71 -1116.51 -901.828 -921.396 -952.24 -1121.12 -985.763 -929.511 -1056.25 -1040.44 -1036.34 -951.68 -1006.38 -952.024 -929.321 -758.597 -939.816 -858.086
tree52 -1300.48 -1272.64 -1268.72 -1267.25 -1544.79 -1463.83 -1345.14 -1452.43 -1577.89 -1435.96 -1305.7 -1382.13 -1456.06 -1587.04 -1388.81 -1621.18 -1171.81 -1277.86 -1371.78 -1383.76 -1418.17 -1177.32 -1232.03 -1404.02 -1071.95 -1579.59 -1283.91 -1575.95 -1303.63 -1349.04 -1170.35 -1264.94 -1324.44 -1346.2 -1075.77 -1272.97 -1125.22 -1186.21 -1295.73 -1289.14 -1035.31 -1165.91 -1187.8 -1051.18 -1168.91 -1081 -1104.92 -973.987 -1042.01 -1145.95 -1088.72 -1284 -1142.81 -1236.89 -1359.26 -1004.6 -1119.25 -1254.29 -1023.71 -1214.79 -931.72 -974.985 -1092.11 -1316.91 -1079.42 -1121.34 -947.352 -1173.04 -1151.25 -1003.36 -1103.86 -1001.66 -1010.41 -1110.54 -1028.26 -1073.99 -1071.17 -944.582 -1171.3 -1077.59 -1041.16 -1075.32 -1010.57 -1038.42 -1193.69 -895.044 -934.256 -1096.97 -1002.49 -992.544 -1008.71 -1114.35 -902.977 -918.1 -952.796 -1120.52 -985.819 -931.195 -1056.25 -1040.44 -1036.34 -950.451 -1006.66 -952.024 -929.55 -758.591 -939.672 -858.086
tree53 -1298.66 -1272.89 -1273.43 -1265.86 -1544.79 -1464.94 -1347.83 -1452.43 -1577.89 -1435.96 -1304.56 -1382.15 -1456.08 -1587.05 -1388.81 -1621.18 -1176.03 -1280.12 -1371.58 -1380.96 -1418.17 -1178.15 -1232.69 -1404.02 -1073.33 -1579.65 -1283.91 -1576.12 -1304.17 -1349.17 -1170.71 -1264.96 -1324.9 -1346.56 -1073.99 -1271.9 -1125.22 -1185.31 -1295.4 -1289.15 -1035.39 -1167.16 -1190.21 -1049.66 -1169.03 -1082.39 -1104.29 -976.379 -1040.26 -1147.29 -1087.85 -1284.04 -1144.33 -1235.87 -1359.25 -1004.6 -1119.25 -1254.84 -1023.51 -1214.78 -932.922 -969.816 -1095.6 -1316.91 -1079.58 -1121.47 -942.348 -1174.02 -1151.25 -1003.46 -1103.95 -1005.62 -1010.41 -1110.39 -1027.53 -1072.68 -1072.22 -948.227 -1170.69 -1077.76 -1042.2 -1075.39 -1011.8 -1039.66 -1193.69 -895.07 -934.159 -1096.08 -1002.49 -992.544 -1008.36 -1116.32 -904.975 -921.558 -952.783 -1120.88 -986.397 -930.466 -1056.25 -1040.46 -1036.34 -950.163 -1006.62 -952.024 -928.906 -758.582 -938.981 -858.086
tree54 -1299.44 -1271.86 -1274.17 -1266.32 -1544.78 -1461.99 -1344.14 -1452.43 -1577.89 -1435.96 -1306.05 -1382.15 -1456.06 -1587.05 -1388.81 -1621.18 -1174.24 -1275.2 -1371.21 -1383.77 -1418.18 -1178.19 -1233.97 -1404.02 -1072.46 -1579.61 -1282.37 -1576.34 -1303.02 -1347.38 -1168.22 -1264.95 -1326.82 -1346.67 -1072.34 -1268.79 -1125.93 -1187.77 -1296.02 -1289.14 -1033.4 -1165.62 -1191.38 -1048.34 -1169.78 -1078.28 -1101.88 -973.825 -1040.39 -1147 -1088.72 -1283.57 -1147 -1236.91 -1359.08 -1004.6 -1120.03 -1253.84 -1020.59 -1214.74 -930.223 -976.373 -1091.44 -1316.89 -1078.5 -1121.01 -946.76 -1171.96 -1151.73 -1004.42 -1103.85 -1003.17 -1010.41 -1109.17 -1031.08 -1070.42 -1072.11 -946.813 -1172.66 -1073.8 -1043.19 -1072.98 -1011.1 -1040.48 -1193.68 -892.269 -932.149 -1097.68 -1002.3 -992.51 -1008.34 -1117.75 -904.469 -921.668 -952.193 -1121.34 -985.543 -927.643 -1056.25 -1040.44 -1036.34 -951.642 -1006.11 -952.024 -929.54 -758.655 -938.6 -858.442
tree55 -1297.78 -1271.86 -1274.55 -1266.33 -1544.77 -1464.49 -1344.12 -1453.24 -1577.9 -1436.03 -1306.2 -1381.93 -1456.05 -1587.03 -1388.81 -1621.2 -1172.3 -1279.2 -1373.89 -1387.91 -1418.27 -1178.29 -1234.27 -1404.02 -1071.35 -1579.82 -1282.19 -1576.43 -1301.34 -1346.99 -1168.09 -1265.57 -1328.82 -1346.69 -1072.34 -1270.72 -1125.23 -1187.63 -1295.92 -1289.14 -1033.39 -1167.7 -1192.33 -1048.34 -1169.75 -1078.31 -1103.44 -973.771 -1039.47 -1147.61 -1088.76 -1282.06 -1148.32 -1236.04 -1359.16 -1005.52 -1120.68 -1252.95 -1020.54 -1214.75 -930.221 -974.951 -1095.36 -1316.89 -1078.46 -1121.46 -949.204 -1171.98 -1150.85 -1003.06 -1103.85 -1003.17 -1010.41 -1108.12 -1031.93 -1070.42 -1072.96 -948.728 -1173.93 -1071.16 -1044.71 -1073.53 -1012.01 -1040.2 -1193.69 -893.067 -932.117 -1097.79 -1002.11 -992.511 -1008.34 -1117.52 -904.47 -919.786 -951.969 -1119.66 -986.969 -927.636 -1056.25 -1042.47 -1036.35 -950.95 -1006.27 -952.026 -929.444 -761.795 -938.509 -860.963
tree56 -1299.31 -1271.86 -1273.75 -1264.95 -1544.78 -1464.48 -1344.12 -1453.2 -1577.89 -1436.02 -1304.05 -1382.15 -1456.06 -1587.05 -1388.81 -1621.19 -1174.92 -1280.03 -1373.23 -1387.22 -1418.26 -1178.29 -1234.51 -1404.02 -1069.68 -1579.81 -1282.37 -1576.8 -1303 -1347.33 -1168.22 -1265.58 -1328.6 -1346.79 -1072.34 -1269.44 -1126.37 -1187.74 -1295.58 -1289.14 -1033.4 -1167.37 -1192.25 -1048.34 -1169.89 -1074.53 -1100.94 -973.758 -1040.39 -1147.44 -1088.53 -1283.03 -1144 -1234.03 -1359.09 -1005.48 -1118 -1253.89 -1020.59 -1214.74 -930.223 -973.97 -1095.38 -1316.89 -1078.5 -1121.53 -948.189 -1171.96 -1151.84 -1004.17 -1103.83 -1002.66 -1010.41 -1109.05 -1029.47 -1070.42 -1070 -948.427 -1173.71 -1075.75 -1044.97 -1073.54 -1011.59 -1040.56 -1193.65 -894.249 -932.149 -1097.34 -1002.2 -992.509 -1008.34 -1114.55 -904.421 -921.355 -952.191 -1120.86 -986.896 -927.637 -1056.25 -1038.93 -1036.34 -951.657 -1006.26 -952.025 -927.242 -760.811 -938.555 -861.314
tree57 -1296.92 -1271.76 -1271.46 -1263.7 -1544.76 -1461.98 -1345.13 -1452.42 -1577.89 -1435.98 -1305.82 -1385.56 -1456.05 -1587.09 -1388.81 -1621.18 -1175.93 -1274.98 -1370.27 -1380.84 -1418.11 -1177.21 -1232.27 -1404.02 -1067.96 -1579.59 -1281.64 -1576.18 -1302.76 -1347.58 -1168.33 -1265.01 -1326.81 -1347.14 -1075.79 -1269.31 -1122.64 -1187.35 -1294.09 -1289.16 -1033.38 -1164.86 -1185.6 -1048.34 -1169.13 -1073.32 -1102.36 -973.35 -1039.78 -1147.25 -1087.85 -1283.71 -1146.09 -1233.63 -1359.04 -999.472 -1118.05 -1252.15 -1020.5 -1215.05 -926.63 -974.397 -1092.63 -1316.89 -1078.45 -1122.29 -946.165 -1171.99 -1151.81 -1006.95 -1103.9 -1002.63 -1010.41 -1109.77 -1028.97 -1069.4 -1072.27 -944.111 -1170.44 -1073.82 -1039.05 -1072.31 -1008.81 -1038.67 -1193.62 -892.255 -929.029 -1098.58 -1001.43 -992.505 -1010.08 -1118.17 -899.066 -920.198 -952.16 -1121.17 -983.396 -928.314 -1056.25 -1040.6 -1038.63 -949.931 -1003.12 -952.024 -926.055 -759.22 -939.026 -858.263
tree58 -1296.93 -1271.76 -1270.67 -1264.6 -1544.76 -1461.98 -1344.31 -1452.43 -1577.89 -1436.1 -1305.21 -1384.72 -1456.11 -1587.07 -1389 -1621.18 -1176.23 -1274.63 -1373.75 -1380.84 -1418.12 -1180.84 -1232.24 -1404.02 -1067.93 -1579.59 -1281.73 -1576.19 -1300.45 -1346.66 -1168.33 -1265.02 -1326.81 -1348.29 -1073.32 -1269.34 -1123.3 -1186.29 -1294.83 -1289.16 -1033.38 -1164.87 -1185.39 -1048.34 -1169.62 -1073.28 -1102.36 -973.351 -1042.39 -1147.29 -1087.61 -1283.76 -1146.15 -1233.54 -1359.04 -999.436 -1117.26 -1253.22 -1021.04 -1214.9 -933.713 -973.737 -1093.7 -1316.89 -1078.45 -1120.33 -946.195 -1172.04 -1151.83 -1003.75 -1103.9 -1002.63 -1013.15 -1108.37 -1028.97 -1066.87 -1070.36 -944.16 -1170.44 -1069.01 -1039.01 -1072.18 -1013.33 -1036.28 -1193.56 -892.253 -929.029 -1098.85 -1002.44 -992.507 -1010.21 -1120.22 -896.622 -920.155 -952.167 -1121.17 -983.4 -928.305 -1056.25 -1041.68 -1038.52 -949.884 -1006.28 -952.033 -927.991 -760.594 -940.485 -858.264
tree59 -1296.92 -1271.76 -1270.67 -1266.23 -1544.72 -1461.98 -1343.94 -1454.34 -1578.06 -1436.15 -1305.22 -1385.29 -1456.23 -1587.79 -1388.99 -1622.67 -1176.04 -1274.25 -1375.36 -1380.84 -1418.21 -1182.28 -1234.17 -1404.04 -1068.08 -1579.69 -1283.21 -1575.98 -1301.92 -1349.84 -1169.26 -1265.02 -1326.82 -1347.83 -1072.76 -1271.14 -1122.86 -1188.36 -1298.72 -1289.23 -1033.08 -1165.55 -1185.9 -1048.98 -1169.45 -1073.38 -1104.16 -973.358 -1036.58 -1149.04 -1087.6 -1283.74 -1146.03 -1235.58 -1359.16 -999.416 -1121.48 -1253.25 -1020.56 -1214.71 -935.603 -973.735 -1092.75 -1317.2 -1080.44 -1119.47 -946.198 -1174.12 -1152.59 -1003.06 -1104.62 -1004.83 -1014.07 -1108.42 -1028.88 -1066.86 -1070.64 -944.178 -1170.44 -1074.04 -1039.06 -1072.98 -1013.98 -1037.73 -1193.57 -895.095 -929.06 -1098.85 -1003.04 -993.131 -1011.99 -1123.26 -897.284 -920.132 -952.892 -1121.11 -984.176 -930.314 -1056.51 -1044.22 -1036.84 -949.898 -1006.39 -952.462 -926.443 -760.788 -938.468 -861.691
tree60 -1300.3 -1275.34 -1274 -1270.28 -1544.91 -1461.98 -1344.25 -1458.09 -1578.2 -1436.5 -1305.55 -1385.15 -1456.48 -1588.64 -1392.53 -1625.58 -1178.7 -1274.16 -1375.45 -1383.89 -1418.41 -1182.44 -1230.62 -1404.11 -1068.23 -1579.91 -1288.38 -1578 -1304.74 -1350.91 -1172.53 -1268.19 -1327.17 -1351.02 -1075.83 -1272.96 -1126.14 -1191.25 -1300.25 -1289.37 -1033.08 -1165.94 -1190.65 -1049.98 -1169.2 -1075.14 -1107.99 -975.053 -1043.13 -1150.43 -1087.78 -1286.22 -1148.17 -1237.63 -1361.11 -999.504 -1122.83 -1255.55 -1020.9 -1215.04 -935.833 -972.67 -1095.28 -1316.9 -1084.04 -1123.24 -949.457 -1175.03 -1153.08 -1008.06 -1108.23 -1005.95 -1014.33 -1110.83 -1031.92 -1069.33 -1070.33 -944.144 -1172.99 -1076.61 -1040.86 -1073.54 -1014.73 -1037.73 -1196.01 -899.179 -929.071 -1098.85 -1003.66 -995.527 -1016.77 -1124.04 -897.648 -921.471 -953.349 -1120.81 -984.57 -931.18 -1059.95 -1045.12 -1040.93 -955.85 -1005.12 -952.025 -924.862 -766.188 -940.204 -867.252
tree61 -1298.72 -1275.34 -1274.03 -1270.36 -1544.91 -1461.98 -1344.34 -1458.2 -1578.03 -1436.48 -1305.7 -1387.85 -1456.48 -1588.27 -1392.53 -1626.41 -1178.7 -1276.72 -1375.27 -1383.94 -1418.41 -1182.14 -1234.46 -1404.11 -1068.23 -1579.91 -1288.49 -1578.51 -1304.84 -1350.99 -1172.68 -1266.91 -1327.28 -1350.54 -1073.51 -1271.96 -1124.36 -1191.25 -1299.99 -1289.37 -1033.11 -1165.63 -1190.41 -1050.05 -1168.87 -1076.77 -1109.19 -974.496 -1043.39 -1149.93 -1087.78 -1288.39 -1148.23 -1237.63 -1361.24 -999.473 -1122.81 -1250.92 -1020.91 -1215.05 -934.846 -972.683 -1095.27 -1317.38 -1083.32 -1123.83 -947.771 -1173.5 -1153.18 -1008.02 -1108.23 -1003.82 -1014.16 -1110.54 -1031.19 -1066.72 -1070.38 -944.192 -1172.99 -1074.8 -1040.69 -1073.62 -1014.68 -1037.73 -1193.51 -899.087 -929.103 -1098.85 -1003.36 -995.53 -1016.77 -1122.52 -897.385 -921.181 -953.449 -1121.28 -984.262 -929.744 -1059.95 -1043.71 -1040.93 -952.851 -1008.65 -952.501 -925.319 -766.144 -938.51 -866.377
tree62 -1296.94 -1271.76 -1270.67 -1266.59 -1544.77 -1461.99 -1344.22 -1453.79 -1578.06 -1436.23 -1305.22 -1384.62 -1456.23 -1587.96 -1389 -1622.44 -1175.91 -1274.63 -1375.12 -1380.85 -1418.21 -1181.57 -1234.38 -1404.04 -1068.08 -1579.69 -1283.18 -1576.66 -1301.92 -1349.01 -1169.25 -1265 -1326.82 -1348.09 -1073.26 -1271.36 -1123.33 -1188.09 -1298.92 -1289.23 -1033.08 -1165.65 -1185.92 -1048.98 -1167.94 -1073.39 -1104.84 -973.363 -1039.22 -1149.27 -1087.61 -1283.77 -1146.16 -1232.8 -1359.15 -999.698 -1121.47 -1252.91 -1021 -1214.92 -935.556 -973.727 -1094.38 -1317.2 -1079.46 -1118.13 -946.183 -1174.01 -1152.59 -1005.51 -1104.56 -1004.83 -1013.38 -1108.45 -1028.97 -1066.86 -1069.02 -944.033 -1170.44 -1072.72 -1039.01 -1073 -1014.6 -1037.77 -1193.57 -895.096 -929.049 -1098.85 -1003.27 -993.133 -1012.77 -1123.96 -897.269 -920.162 -952.902 -1121.57 -984.155 -930.2 -1056.51 -1044.08 -1039.26 -949.891 -1006.11 -952.466 -925.582 -763.359 -939.497 -861.04
tree63 -1299.87 -1275.4 -1273.01 -1268.35 -1548.21 -1465.27 -1346.87 -1458.03 -1578.15 -1439.63 -1307.88 -1386.77 -1459.59 -1589.6 -1392.55 -1628.77 -1178.55 -1277.24 -1372.85 -1387.1 -1418.15 -1184.81 -1232.7 -1407.66 -1071.47 -1582.83 -1284.17 -1578.88 -1302.72 -1347.53 -1171.57 -1268.25 -1329.29 -1350.69 -1075.75 -1269.72 -1126.83 -1189.32 -1295.4 -1292.9 -1036.77 -1167.25 -1188.14 -1051.63 -1170.21 -1076.84 -1110.5 -976.767 -1044.82 -1147.93 -1091.06 -1283.73 -1148.66 -1230.92 -1362.38 -1002.64 -1122.82 -1254.61 -1024.35 -1216.68 -935.556 -976.99 -1093.78 -1319.36 -1084.8 -1120.61 -949.46 -1171.77 -1152.09 -1009.31 -1107.56 -1006.01 -1016.64 -1110.95 -1031.88 -1069.37 -1071.25 -947.124 -1172.96 -1074.87 -1041.49 -1075 -1015.85 -1038.69 -1193.56 -895.096 -932.506 -1098.85 -1002.25 -995.654 -1012.77 -1125.42 -898.748 -922.608 -954.661 -1123.67 -985.711 -930.2 -1063.12 -1044.08 -1041.32 -952.245 -1008.38 -955.669 -926.959 -763.359 -941.213 -867.281
tree64 -1299.87 -1274.71 -1273.01 -1269.25 -1548.21 -1465.27 -1346.88 -1457.46 -1578.2 -1439.63 -1307.88 -1387.16 -1459.68 -1590.5 -1392.52 -1629.01 -1178.56 -1277.25 -1375.12 -1387.1 -1418.21 -1184.93 -1234.42 -1407.69 -1071.62 -1582.9 -1285.7 -1579.23 -1304.31 -1349 -1172.51 -1268.25 -1329.3 -1350.75 -1076.57 -1271.61 -1126.58 -1190.6 -1299.13 -1292.95 -1036.56 -1168.16 -1188.42 -1052.3 -1170.49 -1076.93 -1110.51 -976.776 -1044.82 -1149.53 -1091.06 -1283.77 -1148.67 -1233.45 -1362.51 -1002.96 -1122.82 -1255.33 -1024.36 -1217.43 -935.556 -976.991 -1094.12 -1319.7 -1084.8 -1120.62 -949.461 -1173.9 -1152.87 -1009.29 -1108.19 -1008.24 -1016.71 -1110.98 -1032.1 -1069.37 -1071.53 -947.213 -1172.97 -1075.14 -1041.53 -1075.57 -1016.97 -1040.31 -1193.57 -895.096 -932.538 -1098.85 -1003.25 -996.298 -1012.77 -1125.99 -899.548 -922.67 -955.392 -1123.42 -986.626 -930.2 -1063.38 -1044.08 -1041.07 -952.255 -1008.4 -956.111 -928.089 -763.359 -941.375 -867.281
tree65 -1296.54 -1271.76 -1271.49 -1262.21 -1544.76 -1461.98 -1345.96 -1452.43 -1577.89 -1436.1 -1305.59 -1385.56 -1456.1 -1587 -1388.99 -1621.18 -1176.5 -1274.96 -1372.11 -1380.84 -1418.12 -1180.87 -1232.32 -1404.02 -1067.95 -1579.59 -1281.72 -1576.37 -1300.93 -1347.38 -1168.32 -1265 -1326.8 -1348.19 -1073.02 -1268.46 -1123.29 -1187.11 -1294.84 -1289.16 -1033.38 -1164.68 -1185.61 -1048.34 -1169.52 -1073.32 -1102.37 -973.342 -1041.57 -1146.98 -1087.84 -1283.75 -1146.16 -1231.42 -1359.04 -998.927 -1115.75 -1252.97 -1021.07 -1214.93 -933.838 -974.436 -1090.78 -1316.89 -1078.44 -1122.49 -946.195 -1172.01 -1151.82 -1004.86 -1103.9 -1002.63 -1012.02 -1109.67 -1028.93 -1068.67 -1072.06 -944.222 -1170.42 -1070.42 -1038.93 -1073.15 -1012.91 -1037.98 -1193.65 -892.252 -929.005 -1099.66 -1001.59 -992.507 -1008.78 -1117.86 -898.993 -920.209 -952.167 -1121.03 -983.398 -928.26 -1056.25 -1041.88 -1036.47 -949.915 -1008.34 -952.032 -928.787 -759.433 -942.56 -858.263
tree66 -1297.29 -1275 -1271.33 -1263.73 -1544.76 -1461.98 -1346.23 -1452.43 -1577.89 -1436.1 -1304.84 -1385.51 -1456.1 -1587.03 -1389.02 -1621.18 -1174.26 -1274.25 -1372.23 -1383.16 -1418.14 -1182.7 -1232.31 -1404.02 -1071.37 -1579.59 -1283.2 -1576.38 -1302.93 -1347.4 -1168.33 -1265.06 -1326.8 -1348.12 -1073.27 -1268.43 -1122.45 -1189.28 -1294.79 -1290.05 -1033.38 -1164.67 -1185.48 -1048.99 -1169.2 -1073.29 -1104.65 -974.646 -1039.9 -1148.05 -1087.86 -1283.8 -1146.05 -1231.49 -1359.16 -1000.63 -1115.27 -1253.21 -1022.95 -1215.12 -936.308 -973.501 -1096.61 -1316.89 -1078.44 -1122.34 -947.181 -1172.03 -1151.83 -1004.84 -1105.16 -1002.63 -1014.16 -1109.23 -1030.92 -1070.22 -1073.26 -944.227 -1170.42 -1071.09 -1040.22 -1073.24 -1013.56 -1036.83 -1193.91 -892.3 -929.006 -1097.91 -1002.43 -994.563 -1008.79 -1118.72 -900.079 -922.749 -954.1 -1120.43 -983.398 -928.32 -1056.25 -1040.24 -1036.46 -949.879 -1007.33 -952.031 -930.085 -759.037 -943.277 -858.263
tree67 -1297.4 -1281 -1267.97 -1265.67 -1544.76 -1461.99 -1347.36 -1452.43 -1577.89 -1436.86 -1304.82 -1387.12 -1456.1 -1588.54 -1389.01 -1621.18 -1174.6 -1274.26 -1371.13 -1385.22 -1418.28 -1182.87 -1232.31 -1404.02 -1071.26 -1579.59 -1285.03 -1576.3 -1303.57 -1347.37 -1168.53 -1264.97 -1326.81 -1348.3 -1070.86 -1268.06 -1124.91 -1191.02 -1296.09 -1290.53 -1033.38 -1164.68 -1184.41 -1050.83 -1168.41 -1073.29 -1103.07 -970.39 -1038.93 -1147.89 -1087.76 -1284.76 -1144.39 -1231.4 -1359.04 -998.889 -1114.87 -1252.93 -1024.68 -1215.55 -941.276 -973.5 -1096.38 -1316.89 -1078.44 -1123.17 -946.09 -1172 -1151.84 -1006.66 -1105.79 -1002.64 -1014.75 -1109.14 -1031.82 -1071.94 -1070.19 -944.2 -1170.43 -1079.03 -1040.1 -1073.24 -1010.91 -1035.97 -1196.42 -892.995 -929.006 -1096.4 -1000.8 -997.343 -1009.5 -1120.27 -895.758 -923.365 -954.123 -1120.27 -983.403 -928.376 -1056.25 -1042.83 -1036.46 -949.908 -1009.4 -952.115 -926.577 -759.039 -945.445 -858.248
tree68 -1292.97 -1281.04 -1271.33 -1261.79 -1544.76 -1461.99 -1348.77 -1452.43 -1577.89 -1436.82 -1304.83 -1385.63 -1456.09 -1585.86 -1389.02 -1621.18 -1171.47 -1273.65 -1372.41 -1384.78 -1418.36 -1182.85 -1232.31 -1404.02 -1067.59 -1579.59 -1284.92 -1576.72 -1303.33 -1347.4 -1168.52 -1265.11 -1326.82 -1348.09 -1073.64 -1268.46 -1124.98 -1190.1 -1295.3 -1290.58 -1033.38 -1163.87 -1185.59 -1044.34 -1169.18 -1073.29 -1105.13 -975.434 -1039.59 -1146.42 -1087.61 -1283.24 -1145.88 -1231.48 -1359.17 -1000.74 -1112.74 -1253.15 -1024.18 -1211.46 -941.385 -973.495 -1096.61 -1316.89 -1078.44 -1120.02 -947.208 -1172.04 -1151.85 -1006.67 -1105.78 -1002.64 -1014.67 -1109.06 -1031.53 -1072.05 -1073.36 -944.251 -1170.43 -1078.2 -1038.6 -1073.22 -1013.07 -1034.39 -1197.06 -895.479 -929.005 -1098.26 -1001.79 -994.159 -1010.89 -1120.36 -900.832 -922.053 -952.157 -1120.14 -983.402 -928.384 -1056.25 -1042.39 -1036.46 -949.898 -1010.55 -952.12 -927.661 -754.853 -943.73 -858.27
tree69 -1296.54 -1275.28 -1274.7 -1264.09 -1544.76 -1461.98 -1345.7 -1452.42 -1577.89 -1436.01 -1305.85 -1384.57 -1456.11 -1586.44 -1389.02 -1621.18 -1177.36 -1274.85 -1370.4 -1383.07 -1418.13 -1182.73 -1232.3 -1404.02 -1071.21 -1579.59 -1279.76 -1576.05 -1300.52 -1347.74 -1168.32 -1264.97 -1326.8 -1348.22 -1070.36 -1268.47 -1123.27 -1189.15 -1292.79 -1290.35 -1033.38 -1164.67 -1185.44 -1049 -1169.62 -1073.32 -1104.32 -974.649 -1039.82 -1148.27 -1087.9 -1283.5 -1144.05 -1231.5 -1359.16 -998.413 -1115.71 -1252.95 -1022.04 -1215.1 -937.342 -976.074 -1096.62 -1316.89 -1078.44 -1120.88 -945.538 -1172.04 -1151.83 -1003.92 -1105.16 -1002.63 -1014.15 -1110.24 -1031.27 -1069.61 -1073.01 -943.925 -1170.42 -1067.4 -1040.32 -1073.21 -1011.49 -1039.42 -1194.43 -892.261 -929.006 -1100.32 -1001.88 -994.567 -1008.78 -1119.12 -899.682 -922.829 -954.17 -1121.04 -983.416 -928.354 -1056.25 -1039.88 -1036.48 -949.932 -1005.72 -952.004 -927.902 -760.8 -939.849 -858.265
tree70 -1298.45 -1274.28 -1274.03 -1264.42 -1544.76 -1461.99 -1346.66 -1452.42 -1577.92 -1437.84 -1305.29 -1385.26 -1458.77 -1586.44 -1389.03 -1621.18 -1175.84 -1273.76 -1370.39 -1386.59 -1418.4 -1183.58 -1232.32 -1404.53 -1071.37 -1579.6 -1279.93 -1576.06 -1300.51 -1347.75 -1168.32 -1265.05 -1326.89 -1348.22 -1072.9 -1270.23 -1123.95 -1192.72 -1293.76 -1289.88 -1035.01 -1164.68 -1185.44 -1051.62 -1171.14 -1073.32 -1106.84 -977.199 -1039.94 -1150.58 -1091.38 -1283.71 -1146.23 -1232.19 -1359.04 -1003.95 -1118.3 -1252.16 -1022 -1216 -942.665 -976.994 -1094.82 -1316.89 -1078.44 -1123.35 -950.218 -1172.23 -1151.99 -1005.74 -1105.24 -1002.63 -1015.14 -1109.01 -1032.04 -1064.77 -1073.35 -947.251 -1170.42 -1067.53 -1040.47 -1072.97 -1011.52 -1041.6 -1194.36 -892.194 -929.025 -1101.7 -1002.05 -994.57 -1008.79 -1115.62 -899.682 -921.847 -953.134 -1121.08 -985.262 -928.358 -1056.28 -1039.8 -1038.31 -949.932 -1005.39 -952.004 -927.893 -762.593 -941.516 -860.947
tree71 -1298.15 -1277.18 -1273.85 -1263.34 -1544.76 -1461.98 -1345.28 -1452.42 -1577.92 -1437.47 -1307.11 -1385.49 -1458.48 -1586.41 -1389.03 -1621.18 -1178 -1273.83 -1370.4 -1386.55 -1418.37 -1183.43 -1232.03 -1404.49 -1068.18 -1579.6 -1277.45 -1576.05 -1300.39 -1347.86 -1168.33 -1264.94 -1326.89 -1348.19 -1073.4 -1271.06 -1123.93 -1192.72 -1290.85 -1290.42 -1035.01 -1164.67 -1185.45 -1051.63 -1170.87 -1073.31 -1106.72 -977.137 -1039.94 -1150.14 -1091.38 -1283.68 -1146.86 -1232.51 -1359.16 -1003.71 -1118.3 -1253.04 -1018.87 -1216.23 -941.923 -975.196 -1096.62 -1316.89 -1078.44 -1122.38 -950.163 -1172.23 -1151.99 -1005.34 -1105.16 -1002.63 -1015.22 -1111.48 -1032.04 -1067.22 -1073.43 -947.09 -1170.43 -1067.18 -1039.42 -1073.21 -1011.43 -1041.33 -1194.62 -891.632 -929.026 -1101.58 -1001.19 -992.522 -1008.78 -1117.61 -899.682 -921.271 -954.78 -1121.13 -985.913 -928.228 -1056.28 -1037.51 -1038.41 -949.932 -1003.86 -952.004 -927.859 -762.593 -940.032 -860.948
